<?xml version="1.0"?>
<opencv_storage>
<my_svm type_id="opencv-ml-svm">
  <svm_type>C_SVC</svm_type>
  <kernel><type>RBF</type>
    <gamma>8.9999999999999997e-002</gamma></kernel>
  <C>10.</C>
  <term_criteria><epsilon>1.1920928955078125e-007</epsilon>
    <iterations>2147483647</iterations></term_criteria>
  <var_all>79</var_all>
  <var_count>79</var_count>
  <class_count>4</class_count>
  <class_labels type_id="opencv-matrix">
    <rows>1</rows>
    <cols>4</cols>
    <dt>i</dt>
    <data>
      1 2 3 4</data></class_labels>
  <sv_total>79</sv_total>
  <support_vectors>
    <_>
      -1.68249336e+004 -4.30318945e+003 -7.66431348e+003 5.44368652e+003
      1.04144717e+004 2.51366074e+002 2.94401953e+003 9.55561646e+002
      1.69091064e+003 1.70970139e+002 3.59930542e+003 -4.79912500e+003
      -2.70678882e+003 5.52367334e+003 4.19186719e+003 1.77365344e+003
      -1.73576782e+003 3.02659985e+003 3.92022241e+003 -7.22507202e+002
      1.92330957e+003 3.95902100e+003 5.26999512e+002 3.44989087e+003
      -1.91871985e+003 1.06590295e+003 1.40923303e+003 -9.50442322e+002
      1.63404236e+003 2.55037491e+002 -2.20495483e+003 3.40568237e+002
      5.97760193e+002 1.29140869e+003 1.61714404e+003 4.81704651e+002
      4.24227478e+002 1.28115555e+002 3.91096008e+002 -4.90744263e+002
      2.33095200e+002 5.79821228e+002 1.25886755e+003 7.25785828e+002
      -4.67428955e+002 -4.19436340e+002 -1.30782483e+003 1.07785181e+003
      1.95861633e+002 -3.28673853e+003 6.05815918e+002 1.62811353e+003
      -1.12562793e+003 1.77063647e+003 -4.51659576e+002 6.09332764e+002
      1.29991760e+003 -4.39171661e+002 -1.24005554e+003 -5.23384521e+003
      2.85906665e+003 -1.28789093e+002 2.16855884e+003 1.15483569e+003
      -1.21901831e+003 2.05699860e+002 -7.39500793e+002 -8.60564514e+002
      3.49036530e+002 4.84727539e+002 8.24042053e+001 3.00407257e+002
      -5.66166039e+001 -2.39060593e+002 -7.82126083e+001 7.43635712e+001
      3.09784851e+001 7.11445093e+000 4.20929443e+003</_>
    <_>
      -1.60238408e+004 -3.88896167e+003 -8.07515625e+003 5.19106641e+003
      9.56459180e+003 -4.47587128e+002 3.49853052e+003 1.58397241e+003
      1.42316907e+003 1.44797318e+002 5.06885938e+003 -7.09075537e+003
      -2.53449829e+003 6.07514453e+003 3.65552661e+003 2.22270313e+003
      -2.48962451e+003 2.45434131e+003 2.97303711e+003 -3.95816284e+002
      1.75343665e+003 2.68132935e+003 1.87789246e+002 2.83673486e+003
      -2.41958398e+003 6.86661682e+002 1.05224158e+003 -4.38101349e+002
      2.63152026e+003 5.56932312e+002 -2.17806470e+003 2.40082495e+003
      2.15169531e+003 2.82652710e+003 -2.19307983e+003 2.88472229e+002
      1.72074731e+003 -3.37271729e+002 -1.70897742e+003 2.98520020e+002
      -3.00336670e+002 -3.60116699e+002 8.06202759e+002 1.95828479e+003
      -1.75340576e+002 -1.12714493e+002 -5.21829529e+002
      -8.11454529e+002 3.14798096e+002 1.22568494e+003 -7.97909927e+001
      -1.89171362e+003 8.36318054e+002 -1.31105261e+003 -2.64312096e+001
      2.03041916e+002 -1.52227100e+003 6.28249817e+002 1.07338818e+003
      5.16814063e+003 -2.30352271e+003 8.97565308e+001 -1.98202539e+003
      -8.53359558e+002 1.36068311e+003 1.92328094e+002 4.32162231e+002
      7.14055237e+002 -1.99801426e+001 -4.25506775e+002 -3.22755951e+002
      -4.04408325e+002 1.59091141e+002 1.17602150e+002 6.90106430e+001
      -1.75094757e+001 -7.64667130e+001 -7.01102524e+001 3.90039624e+003</_>
    <_>
      -1.66594277e+004 -5.91285840e+003 -7.84661621e+003 6.65062158e+003
      1.24260039e+004 3.05277612e+003 8.48228836e+001 -1.10757881e+002
      1.92624768e+003 -1.70845288e+003 3.14139380e+003 -1.90063611e+003
      -4.43281982e+003 3.54562378e+003 1.13279553e+003 -1.79969287e+003
      -2.00058362e+003 -2.02306836e+003 2.38535782e+002 -2.06008594e+003
      3.33777661e+003 1.64033423e+003 3.14172302e+002 -1.57556177e+003
      1.07414526e+003 -1.00059418e+003 -4.05421104e+001 3.62739478e+003
      -4.09006177e+003 -1.18542627e+003 2.79543359e+003 -5.74020410e+003
      -2.58062573e+003 -3.56332568e+003 2.44281128e+003 7.92316742e+001
      -2.91137476e+003 2.09704865e+002 2.44561987e+003 1.17129395e+003
      1.10079419e+003 -9.41225525e+002 -4.26154639e+003 -3.14496704e+003
      1.45305078e+003 1.57611255e+003 9.19511169e+002 9.27814148e+002
      -2.06591309e+002 -5.14903809e+002 -2.80661401e+003 2.05517212e+003
      -9.23800598e+002 2.58187317e+002 -3.76699493e+002 3.21694427e+002
      -1.30614709e+003 5.57604248e+002 -2.31811386e+002 1.14334436e+003
      -1.42590759e+003 -7.13415146e+001 -6.86988953e+002
      -7.40333374e+002 1.37486298e+002 -3.95971649e+002 1.11640663e+002
      2.83182068e+002 -2.18932602e+002 5.69690857e+002 3.23424255e+002
      -1.15397787e+001 -7.75134583e+001 -7.43129044e+001 6.24691391e+001
      1.06202221e+001 3.77367630e+001 2.97833977e+001 4.94497656e+003</_>
    <_>
      -1.51065410e+004 3.37899078e+002 -2.61652539e+003 9.15577344e+003
      1.38149238e+004 3.35480713e+003 -1.79136410e+001 9.18890808e+002
      5.52540039e+002 -4.09367493e+002 -3.03904663e+003 1.40381921e+003
      -7.80895142e+002 -7.45937842e+003 -7.54515320e+002
      -3.49000427e+002 2.56380981e+003 -1.84953323e+002 -2.26480194e+002
      2.19115576e+003 -3.42660034e+003 -2.21024829e+003 -7.69675964e+002
      -1.43860413e+003 1.13868994e+003 1.61866333e+003 -3.47234863e+002
      -1.99675989e+003 -3.99788177e+002 -9.06198608e+002
      -1.46279980e+003 -1.97333386e+003 -2.45064926e+002 5.12390503e+002
      4.27481934e+003 1.49268652e+003 1.23485400e+003 -1.10989307e+003
      6.26706543e+002 -9.88693787e+002 -7.62932373e+002 1.43835541e+002
      2.07242529e+003 3.50738525e+003 -4.93742126e+002 1.84730698e+002
      1.66353470e+002 4.64332489e+002 -1.34333450e+002 7.05317566e+002
      9.10642090e+002 -1.19614417e+003 2.42874023e+002 1.87055695e+002
      -2.45665942e+003 5.81952100e+003 -3.63289624e+003 -4.66740540e+002
      1.67742340e+002 -6.69390137e+002 -2.30240723e+003 -1.67143341e+002
      1.30920486e+002 3.01890533e+002 -1.17164075e+003 8.51314011e+001
      -1.52557755e+002 9.71095200e+001 1.15310532e+002 3.79687073e+002
      2.27403870e+002 -1.41540253e+002 2.72807312e+000 -6.53023682e+001
      -7.52125397e+001 1.11246815e+001 3.13378735e+001 2.38941437e+002
      3.85581006e+003</_>
    <_>
      -1.48714141e+004 -1.28759485e+003 -4.45671924e+003 8.46438281e+003
      1.31861006e+004 2.92751001e+003 1.00892450e+003 6.67010681e+002
      5.40765198e+002 4.69545868e+002 -1.39268066e+003 -1.20459961e+003
      -2.07351685e+003 -4.60659424e+003 3.55526154e+002 -1.37409393e+002
      1.00090472e+003 -9.41039886e+001 -1.36865433e+002 1.27270044e+003
      -2.15868066e+003 -1.16332397e+003 -7.54669250e+002
      -2.08732813e+003 3.26302795e+002 8.74174316e+002 -3.96824646e+002
      1.48267593e+002 -1.50037122e+003 -1.38992603e+003 -1.76451050e+002
      -6.32849426e+002 1.75159866e+002 -3.45419495e+002 6.43587402e+003
      2.49356543e+003 9.29606323e+002 -4.24203491e+002 1.26111633e+003
      -3.83875519e+002 2.50795059e+002 -1.29934692e+003 5.06582520e+002
      1.18729236e+003 1.41011169e+003 -1.87551416e+003 -1.02744446e+002
      -2.24125293e+003 1.04980537e+002 2.34182544e+003 2.18657397e+003
      -1.35373499e+003 6.64662720e+002 -8.91822266e+002 2.62195068e+003
      -4.81243555e+003 4.35275049e+003 -1.49042645e+001 1.21321037e+002
      9.10261780e+002 2.17952319e+003 3.39368042e+002 8.19779129e+001
      -1.95465637e+002 1.51088550e+003 -2.00299225e+001 3.01361237e+001
      -8.54441071e+001 -1.09879448e+002 -8.64739624e+002
      -4.00063568e+002 4.16803551e+001 1.13613853e+002 1.35478561e+002
      -3.09214630e+001 -5.09145203e+001 -3.74295349e+001
      -2.75918640e+002 4.93006250e+003</_>
    <_>
      -1.67166211e+004 -3.10485767e+003 -5.55105859e+003 7.97814307e+003
      1.39735078e+004 3.74092993e+003 -2.04069458e+002 -9.54795593e+002
      1.17455042e+003 -1.22792505e+003 -2.45699829e+002 3.13632996e+002
      -1.65455676e+003 -5.34694397e+002 -2.47164124e+002
      -9.13004272e+002 -7.42339600e+002 -3.18256934e+003 2.69191711e+002
      -1.33603857e+003 -8.81338562e+002 -1.41516382e+003 1.20058313e+003
      -8.08827576e+002 3.18218042e+003 -5.30760376e+002 -2.43231487e+001
      5.83390686e+002 6.41991638e+002 2.10455786e+003 2.35836572e+003
      3.11264941e+003 1.98407715e+002 -1.45679102e+003 -7.43679053e+003
      -3.28125415e+003 -1.36128247e+003 4.20859253e+002 -2.04797961e+003
      1.59633960e+003 8.89852905e+002 5.19974060e+002 -1.74835498e+003
      -2.03393835e+003 1.40939355e+003 -5.49234680e+002 7.32487610e+002
      -1.62701904e+003 -2.07276172e+003 4.09679688e+003 3.03031665e+003
      -1.40841101e+003 1.01669495e+003 -1.69786365e+003 7.81880432e+002
      1.14286194e+003 4.18415680e+001 -2.25586456e+002 5.47571594e+002
      -3.04611523e+003 1.46007111e+002 -1.01890724e+002 9.31179016e+002
      8.04863464e+002 -9.20289856e+002 2.48652344e+001 2.49258453e+002
      -3.44881927e+002 8.85099182e+001 -8.28194580e+002 -2.07457947e+002
      1.52669830e+002 -7.31369705e+001 5.81612549e+001 4.18035927e+001
      2.25756478e+000 -9.46592102e+001 -9.70662460e+001 5.26191162e+003</_>
    <_>
      -1.50660625e+004 8.46488586e+002 -2.76643262e+003 9.28892285e+003
      1.48793799e+004 3.83176465e+003 -5.48736938e+002 3.46773315e+002
      2.42982544e+002 -7.89872498e+002 -1.83816724e+003 1.47426135e+003
      -2.05868637e+002 -7.06969824e+003 -9.59299377e+002
      -5.74600220e+002 1.93497400e+003 -1.56933899e+003 -9.29573242e+002
      1.43667810e+003 -3.79914258e+003 -3.01694312e+003 2.58258247e+001
      -9.98957947e+002 1.47610840e+003 1.39953870e+003 -7.17963928e+002
      -7.46874390e+002 8.60961060e+002 1.29788049e+003 -1.36143860e+002
      2.70650684e+003 9.30199814e+001 1.12093872e+003 -4.39089258e+003
      -2.58806006e+003 3.50557617e+002 1.42844498e-001 -1.75383862e+003
      -7.48283813e+002 -4.79389313e+002 1.15212866e+003 1.33983447e+003
      -1.80180371e+003 -2.50048560e+003 8.28527222e+002 -8.52194702e+002
      2.68347046e+003 1.18028943e+003 -4.94280225e+003 -3.59252710e+003
      1.69452930e+003 -1.11292725e+003 1.82715918e+003 -4.98477295e+002
      -2.80826660e+003 9.85129700e+002 3.31955658e+002 -4.57461670e+002
      1.85274976e+003 6.43363708e+002 4.65717239e+001 -8.64964355e+002
      -7.74751709e+002 4.40622681e+002 -1.13716576e+002 1.46606283e+001
      1.80671234e+002 -1.00525398e+002 7.58172302e+002 2.00142105e+002
      9.34213161e+000 6.62008286e+001 5.82275696e+001 1.25133247e+001
      -7.81425476e+001 5.80072556e+001 5.29362984e+001 8.88874512e+003</_>
    <_>
      -1.75729082e+004 -4.51948291e+003 -6.91579102e+003 2.30330835e+003
      3.86940747e+003 2.63746997e+003 -1.98416956e+003 1.34924316e+002
      9.37065369e+002 4.51998749e+002 -4.05893555e+003 8.83778027e+003
      7.58836816e+003 5.20085791e+003 -5.11562354e+003 5.62168579e+002
      -6.31959900e+002 4.23139063e+003 -4.03746533e+003 -1.93033948e+003
      1.59448328e+003 2.32341724e+003 2.20004248e+003 3.79040308e+003
      1.57722607e+003 2.09981079e+003 2.59929102e+003 -2.47045117e+003
      2.74863452e+003 5.74325586e+003 -1.32404187e+003 -3.34720410e+003
      -1.65123267e+003 -1.83914465e+003 7.17628113e+002 -3.36568530e+003
      -8.62188293e+002 -1.32578552e+003 1.47925415e+003 -2.78294409e+003
      -3.11409229e+003 -1.70588635e+003 -1.66582996e+003 1.31815332e+003
      -7.98355164e+002 -2.20501440e+003 -2.11013290e+002
      -1.02734802e+003 -2.90254021e+001 2.22962971e+001 -3.92552299e+001
      2.57347931e+002 5.00965691e+001 -3.91924652e+002 6.09514221e+002
      -2.88463654e+002 -1.76997009e+002 1.51929352e+002 2.30077915e+001
      1.31499536e+003 7.71805359e+002 4.42398872e+001 1.61334930e+002
      2.72349823e+002 -1.09633858e+002 1.08696114e+002 2.34004730e+002
      1.27143471e+002 -5.11736565e+001 -1.26493813e+002 -6.47197647e+001
      -1.20536184e+001 2.42627731e+002 -1.17627953e+002 5.23564453e+001
      9.18804359e+000 -3.27522125e+001 -5.41024780e+001 9.72557031e+003</_>
    <_>
      -1.47738320e+004 -4.00859570e+003 -5.68207861e+003 4.46930469e+003
      7.65557227e+003 2.68474121e+003 1.14890388e+002 7.84292480e+002
      -2.84491187e+003 6.81932983e+002 1.18328564e+003 8.96275684e+003
      8.68566602e+003 1.08887598e+003 -9.44677795e+002 2.43228711e+003
      1.10320166e+003 2.57000049e+003 -1.37832214e+003 -2.75772144e+003
      3.53758447e+003 -9.01113403e+002 -2.95628540e+003 -1.13951563e+003
      -9.38656250e+003 -7.75403418e+003 -4.58744531e+003 1.86520679e+003
      -5.18462708e+002 -4.25695557e+003 1.38850269e+003 1.26448999e+003
      -5.13152657e+001 -5.40981722e+000 -8.52424683e+002 1.09460278e+003
      6.11131531e+002 7.30758911e+002 -1.14578735e+003 2.50490158e+002
      2.83234081e+001 1.14987317e+003 1.23177051e+003 3.02097137e+002
      7.88412598e+002 2.88099792e+002 -6.84254074e+001 1.97104065e+002
      3.92930206e+002 6.25102806e+001 1.50012329e+002 -2.66409546e+002
      -9.57897720e+001 2.41723587e+002 1.09072533e+002 -8.56672211e+001
      -7.07306671e+001 -1.10815315e+002 -9.29612255e+000
      -5.36601379e+002 -4.00409210e+002 -1.54643621e+001 5.81648540e+000
      5.43203354e+000 4.50872574e+001 -9.18546982e+001 1.02632122e+001
      1.02049723e+001 -3.45999222e+001 8.61919708e+001 1.79759308e+002
      -2.89538860e+001 -2.06319595e+002 -1.64539784e-001 5.90746593e+000
      -3.34649544e+001 4.94742737e+001 -8.40744553e+001 5.02989502e+003</_>
    <_>
      -1.44163271e+004 -4.36266699e+003 -9.75742090e+003
      -2.20150684e+003 -5.80377148e+003 -1.65048071e+003 2.15520630e+003
      2.06004541e+003 5.64037720e+002 -9.92543091e+002 1.78522109e+004
      -2.62321973e+003 9.17021191e+003 -4.18225439e+003 1.70333447e+003
      2.45205273e+003 1.73331470e+003 -2.36241455e+003 -4.95629785e+003
      7.72522339e+002 -3.63461621e+003 -1.60454980e+003 1.78380591e+003
      2.33331396e+003 5.24129346e+003 -2.58566138e+003 2.80961823e+002
      5.45066681e+001 2.30339771e+003 2.92910767e+002 2.23128281e+002
      -1.83017017e+003 1.31319482e+003 -1.50194321e+002 -4.42049217e+001
      2.40483105e+003 -7.55925659e+002 7.04007996e+002 1.53538574e+003
      -7.34396851e+002 -7.16741180e+001 -4.58221863e+002 8.61722290e+002
      -9.56322754e+002 -2.62684723e+002 1.46580017e+002 3.05101563e+002
      -2.84395233e+002 6.45011444e+001 6.59920197e+001 -2.92927856e+002
      -2.46100494e+002 5.07081757e+001 -4.29544281e+002 -2.14353561e+002
      -1.95469437e+002 8.51460114e+001 -3.49428070e+002 -2.05547989e+002
      -4.45227356e+002 -2.27295288e+002 3.98468666e+001 2.49468338e+002
      5.43458099e+001 -4.54452209e+001 4.58480453e+001 3.00503845e+001
      -1.27564949e+002 -2.61738091e+001 -8.42179413e+001 6.16465492e+001
      1.72584579e+002 -4.91056824e+001 8.47466431e+001 3.21386886e+000
      6.64544642e-001 -2.62029982e+000 1.26553946e+001 3.39365723e+003</_>
    <_>
      -1.72408301e+004 -5.69343701e+003 -9.63126465e+003
      -2.44065659e+002 -5.09505273e+003 8.14627319e+002 -2.78391089e+003
      -2.04999283e+002 1.17994763e+003 -5.98981445e+002 -6.26900537e+003
      2.80420752e+003 -3.64127734e+003 -8.86866943e+002 -1.94654712e+003
      2.26563599e+002 -4.21847595e+002 -2.71604919e+002 -9.37559814e+002
      -4.94585175e+002 4.09134546e+003 1.40844910e+003 1.37042249e+003
      1.93700775e+002 2.32993115e+003 1.71423560e+003 -8.20877609e+001
      -1.60597137e+002 2.91636621e+003 -2.99040967e+003 1.05839038e+003
      -3.73993774e+003 4.53449561e+003 -1.51005310e+002 -4.23149609e+003
      5.95103711e+003 -3.73646313e+003 2.94720752e+003 1.43033350e+003
      7.69530396e+002 1.74711426e+003 2.72659241e+002 1.40448621e+003
      3.12590063e+003 -2.02089392e+003 1.53319934e+003 1.07821570e+003
      1.48262219e+003 2.01377356e+003 -1.06474402e+003 -9.99778564e+002
      -2.30697559e+003 3.49227867e+001 -2.91199585e+003 8.09293213e+002
      -8.79481445e+002 2.59775124e+001 -2.45162384e+002 9.79658585e+001
      -5.48084961e+002 5.63071594e+002 -3.61268280e+002 1.62704559e+002
      5.13135986e+002 1.98971222e+002 -3.66664009e+001 1.86628265e+001
      -1.67214905e+002 2.15513107e+002 -1.36532715e+002 -7.67091370e+001
      -6.49574327e+000 -4.88233765e+002 -1.27710846e+002
      -5.99974976e+001 -7.21601868e+001 -3.80893784e+001 5.71992645e+001
      4.70914893e+003</_>
    <_>
      -1.99801094e+004 -7.91161963e+003 -1.22783467e+004
      -1.24469092e+003 -8.53503613e+003 -1.40395451e+001
      -1.34133264e+003 7.77745544e+002 -9.24398071e+002 1.03761133e+003
      -3.40786230e+003 -1.97933533e+003 -2.09640967e+003 3.38348462e+003
      -5.07304047e+002 -1.71916003e+003 -1.27930237e+003
      -1.09340125e+003 2.39721338e+003 5.65853076e+003 -2.65706982e+003
      -2.50151416e+003 2.18366959e+002 -4.83728241e+002 1.38391077e+003
      -4.07169043e+003 -1.36532129e+003 2.05099731e+003 -1.69478821e+003
      -4.11461377e+003 -7.48125854e+002 1.39058997e+003 2.05474268e+003
      -1.76581763e+003 -3.11080566e+002 -1.70630615e+002
      -3.93316620e+002 1.82550940e+003 -6.86771011e+001 -3.21308838e+003
      -3.77266724e+003 -1.70259058e+003 -2.32197937e+002
      -1.93136011e+003 -1.12559485e+003 -4.11104980e+003 7.28110580e+001
      -2.17211743e+003 -9.26124390e+002 -2.09794360e+003 4.12896179e+002
      4.62002777e+002 1.75354993e+003 1.76778091e+002 -6.66259583e+002
      1.35997791e+003 -2.68856006e+003 2.53309668e+003 -3.89808083e+001
      7.86056946e+002 3.13663208e+003 -1.58998291e+002 2.61856110e+002
      2.23307991e+001 8.44275879e+002 -4.61748352e+002 6.52712097e+002
      -3.68404633e+002 -4.14792061e+001 -1.95983810e+002
      -3.33024658e+002 1.89674988e+002 2.15736099e+002 2.77913574e+002
      -7.44221954e+001 2.45380096e+001 2.32534695e+001 6.25265551e+000
      6.52113916e+003</_>
    <_>
      -1.66471289e+004 -1.47582935e+003 -9.40040332e+003 4.26258698e+002
      -5.58594336e+003 -4.19465210e+002 -7.70929016e+002 1.32384033e+003
      -3.47940112e+003 1.71650354e+003 -5.96434619e+003 -3.38663177e+001
      9.05228638e+002 1.00682312e+003 -7.58765076e+002 -7.92188660e+002
      -1.61203156e+002 2.11194653e+003 3.78665918e+003 9.87543457e+003
      -2.51383301e+003 -1.03012688e+002 2.57769995e+003 6.74298975e+003
      1.04513379e+003 -3.11283081e+003 -2.81027496e+002 7.44815613e+002
      1.43468127e+003 -9.12057373e+002 6.10473267e+002 -1.30083923e+002
      8.04824753e+001 3.03101898e+002 -4.38745697e+002 5.16272583e+002
      -2.39436096e+002 3.08296722e+002 5.04232910e+002 1.54933643e+003
      3.21238617e+002 -1.15273486e+003 -5.58390442e+002 -4.12852600e+002
      1.63671802e+003 6.96698547e+002 5.19233093e+002 2.14005591e+003
      -8.83399902e+002 2.94673486e+003 3.29378937e+002 1.30344690e+003
      -2.51266870e+003 3.47493042e+003 5.27513618e+001 -7.65110352e+002
      2.34371387e+003 -2.21053223e+003 -5.97857727e+002 4.10409607e+002
      -3.24547510e+003 2.41332352e+002 -1.64167999e+002 1.84621307e+002
      -1.11830444e+003 2.62618073e+002 -4.40010925e+002 3.97976288e+002
      1.26202530e+002 5.54160728e+001 -2.66002387e-001 -1.75609833e+002
      -2.78701687e+001 1.63333878e+002 3.17385902e+001 -3.59993706e+001
      -6.57202911e+001 1.15262108e+001 9.31405664e+003</_>
    <_>
      -1.76840059e+004 -7.78809131e+003 -1.22382881e+004
      -2.68368091e+003 -1.06668887e+004 -8.98044861e+002 7.40092346e+002
      2.51700537e+003 -7.19172974e+002 -4.47646454e+002 6.72642517e+002
      -3.84981006e+003 -1.81592529e+003 1.12326317e+001 -9.94442810e+002
      -2.36653271e+003 3.98456299e+002 -8.25768005e+002 2.81124634e+003
      4.34926422e+002 -1.93938708e+003 -1.80345483e+003 -2.71682666e+003
      -4.19595508e+003 -2.44353931e+003 -8.27266846e+002
      -2.22136865e+003 -8.50266296e+002 -5.88567047e+001 2.90610181e+003
      6.17650269e+002 -2.00249390e+003 -1.49455798e+003 -2.16238037e+002
      -5.33753723e+002 -1.97476697e+003 6.06053162e+002 -7.03028625e+002
      -1.81961133e+003 -1.82275598e+003 -2.09019409e+003 9.61804749e+002
      -7.14352234e+002 2.53324780e+003 2.26418457e+003 -2.01797058e+002
      -2.49592188e+003 -6.70245361e+002 1.62200476e+003 -1.42762024e+002
      -3.31067505e+003 1.65977356e+003 -1.01418933e+003 -4.25363818e+003
      -1.25140953e+001 1.29612732e+003 2.68065552e+003 -3.39464258e+003
      3.42998901e+003 -7.63944336e+002 -1.40624283e+002 -4.49345886e+002
      -1.53343277e+002 1.28447891e+002 -4.17373444e+002 5.91806641e+002
      -3.75037201e+002 -2.68946411e+002 2.36153152e+002 -1.57363708e+002
      -4.84855728e+001 1.78690842e+002 -6.38308411e+001 3.04389877e+001
      -2.66428814e+001 7.01082535e+001 4.27698517e+001 9.22529297e+001
      3.74953516e+003</_>
    <_>
      -1.51278604e+004 -6.74202100e+003 -1.08746211e+004
      -4.26654846e+002 -8.25997363e+003 -1.57663293e+003 1.50075476e+003
      3.02701929e+003 -6.72220520e+002 -1.56676607e+001 2.22458691e+003
      3.31807446e+003 4.56098193e+003 -1.56949817e+003 2.84308929e+001
      7.50105652e+002 9.30830811e+002 5.60404883e+003 2.59018555e+003
      -4.35000793e+002 -1.72664172e+003 1.74835495e+002 2.63608887e+002
      -2.06952856e+003 -3.35385010e+003 1.19666074e+004 2.06614185e+003
      -2.97894043e+002 -4.65554541e+003 -3.91500049e+003
      -1.61336853e+003 7.12690552e+002 2.14252686e+003 -6.00719482e+002
      -7.32825623e+002 -4.41850433e+002 -1.12422070e+003 3.88432434e+002
      -5.62947205e+002 -8.26433792e+001 1.12885815e+003 8.29693909e+002
      5.37677422e+001 -4.38877295e+003 1.70026379e+003 -1.04660571e+003
      1.80668060e+002 1.05594104e+003 -9.41081543e+002 9.60390198e+002
      1.51619888e+002 -2.45284424e+002 -2.94116459e+001 -6.45286865e+001
      1.24855293e+002 1.97630051e+002 -3.15880737e+002 -4.07994659e+002
      4.09996796e+002 -1.98012695e+002 -2.95048798e+002 7.08299866e+001
      -6.12112122e+002 -1.42014069e+002 -8.85010910e+001 3.64989441e+002
      -1.84702286e+002 9.27727509e+001 -2.14180618e+002 2.52853333e+002
      2.64066772e+002 -1.87325058e+002 -2.14348557e+002 5.25895691e+001
      1.50892220e+001 -3.25886116e+001 -4.88535500e+000 -4.48680840e+001
      5.66659668e+002</_>
    <_>
      -1.73202773e+004 -9.49814648e+003 -1.23143457e+004
      -2.62894165e+003 -1.09064189e+004 -1.93549744e+003 1.07612073e+003
      2.74908618e+003 -1.87935425e+003 -8.17481995e+002 1.97057446e+003
      -2.30931958e+003 4.52830383e+002 -1.28716565e+003 -1.09622955e+001
      -1.43276257e+003 2.42234482e+002 -2.07763330e+003 4.48822705e+003
      -2.03101550e+003 -1.64516321e+003 -1.82237573e+003
      -2.55457666e+003 -4.32184814e+003 -2.92609351e+003 6.84465332e+002
      8.06621704e+002 -1.29862964e+003 9.56653900e+001 2.68533521e+003
      1.80868542e+003 -2.38864380e+003 -2.60596826e+003 -1.29794580e+003
      -2.08571606e+003 -1.90330554e+003 -4.88184998e+002
      -1.82412952e+003 1.36745514e+002 9.75933044e+002 3.36065460e+002
      1.93988323e+001 -1.35287231e+003 5.59755664e+003 6.87906418e+001
      1.51954004e+003 1.82740747e+003 1.47172192e+003 -6.79614563e+002
      -7.25200745e+002 3.43586646e+003 -1.64822327e+003 -1.51143585e+002
      3.39627637e+003 -5.95728271e+002 -1.84600110e+003 -7.44378235e+002
      2.69866479e+003 -2.89964209e+003 2.23572189e+002 2.77697174e+002
      1.23848312e+002 8.32185822e+001 -1.61000534e+002 7.69709167e+002
      -5.83614197e+002 1.91770859e+002 2.69822327e+002 1.34115417e+002
      3.50103210e+002 -1.44616577e+002 4.14260216e+001 6.07240067e+001
      6.43142319e+001 7.44376297e+001 2.58058500e+000 -3.68905487e+001
      -7.78533096e+001 2.33336377e+003</_>
    <_>
      -1.51065391e+004 -4.58178406e+002 -8.00706641e+003
      -1.65096265e+003 -8.15267090e+003 -5.55364685e+002
      -1.78970654e+003 9.67284729e+002 -2.35079370e+003 7.02769104e+002
      -4.30253564e+003 -8.56621521e+002 -1.73335938e+003
      -9.66573730e+003 2.99703638e+003 1.94420996e+003 1.17013306e+003
      -9.63787292e+002 8.72522705e+002 8.20883179e+002 3.18657983e+003
      2.05505273e+003 7.16235123e+001 5.61091260e+003 -3.32680005e+003
      -1.88420422e+003 -1.79358679e+003 -1.66142139e+003 3.68061987e+003
      2.92398926e+003 -2.29134058e+003 -6.72610840e+002 -2.55230408e+002
      6.47194214e+001 2.59045483e+003 -1.85281470e+003 8.21085449e+002
      -3.02673901e+003 5.91105774e+002 1.58866626e+003 1.97572290e+003
      6.24376892e+002 -1.79993311e+003 -4.95094971e+003 1.39481262e+003
      2.39744995e+003 -8.39512939e+002 -4.32510345e+002 -4.89961395e+002
      -9.09596069e+002 -5.04788239e+002 -1.70457678e+003 2.32414209e+003
      -2.70692114e+003 -2.59012665e+002 -1.77525070e+002
      -1.34458447e+003 1.74707434e+003 -5.14348572e+002 -8.25284119e+002
      7.57106689e+002 8.09314423e+001 -2.38507175e+001 -5.17499695e+002
      7.32368103e+002 -4.52689148e+002 3.23410301e+001 1.06215485e+002
      -2.72922943e+002 1.63559589e+001 1.12839973e+002 -2.22374847e+002
      2.16555511e+002 1.93146408e+002 -4.75224075e+001 -4.17025566e+000
      -4.79903488e+001 -1.81863480e+001 4.99648096e+003</_>
    <_>
      -1.70672227e+004 -1.08078789e+004 -1.16846045e+004
      -1.73454712e+003 -7.67421338e+003 -1.82866806e+002
      -4.22881897e+002 1.50278113e+003 6.00099060e+002 -6.79421997e+002
      -2.65882837e+003 -1.40950623e+003 -3.36381665e+003 1.18915062e+002
      -8.55353027e+002 -1.06023352e+003 9.15054565e+002 -1.60470630e+003
      -1.79137146e+003 -6.35840479e+003 2.98257886e+003 1.32336047e+003
      -2.33640576e+003 -5.65343311e+003 6.70289063e+002 -1.29588916e+003
      -9.65982239e+002 -2.42698682e+003 2.48241846e+003 2.65645996e+003
      -5.87219238e+002 1.18107300e+003 1.15879053e+003 6.93042114e+002
      1.32264575e+003 2.23416772e+003 8.82726196e+002 -2.80591492e+002
      9.11098145e+002 -6.32763123e+002 1.21289648e+003 1.88210281e+002
      2.85130127e+003 -4.62487402e+003 -4.73593799e+003 -7.87200195e+002
      3.13878174e+002 -2.46238013e+003 -4.72470001e+002 1.49423279e+003
      1.27538477e+003 2.40167456e+003 -7.81779541e+002 3.56701489e+003
      1.26834119e+003 8.70630859e+002 6.91999207e+002 -1.19915369e+003
      1.47269409e+002 1.12260522e+003 -1.68850317e+003 4.51595886e+002
      -4.52973366e+001 3.35266083e+002 -1.36457886e+003 1.85080765e+002
      -4.65025063e+001 2.79323578e+002 -2.79066864e+002 -2.98598724e+002
      3.19197662e+002 2.42974915e+002 3.27445068e+002 -5.54000130e+001
      3.06346092e+001 -3.16075706e+001 3.49402199e+001 5.20288124e+001
      2.94259790e+003</_>
    <_>
      -1.64096172e+004 -6.46325635e+003 -8.41559375e+003
      -2.91800269e+003 -8.74338965e+003 -6.69716492e+002
      -2.23416968e+003 -5.82399048e+002 9.46529175e+002 -1.74822095e+003
      -9.40440063e+002 4.79994110e+002 -4.92571143e+003 -6.55774902e+003
      3.24333350e+003 3.04882056e+003 2.74809631e+002 -2.17803247e+003
      -6.58831006e+003 -5.91559033e+003 4.94532471e+003 2.05546655e+003
      2.34053540e+003 4.91122266e+003 1.89186060e+003 5.99949158e+002
      6.55948120e+002 2.21780493e+003 -3.83425757e+003 -2.28558008e+003
      6.36431824e+002 5.38404883e+003 -3.12959033e+003 1.39495569e+003
      8.98163269e+002 -2.02571497e+003 4.75411682e+002 2.27502930e+003
      -7.79915100e+002 -9.71732910e+002 -2.17966675e+003
      -1.42460266e+002 -2.72489777e+002 3.67876733e+003 2.03612317e+003
      -1.80277039e+003 6.06997375e+002 1.41582715e+003 -2.68964138e+001
      1.00802893e+003 -3.94436981e+002 9.49765686e+002 -1.14200793e+003
      1.14554333e+003 -7.51873779e+002 1.34711426e+002 1.10059242e+002
      -3.35259796e+002 1.82866119e+002 4.60716492e+002 1.53862793e+002
      -1.35887283e+002 9.26628952e+001 9.05429459e+001 1.94761337e+002
      5.37291321e+002 1.12425508e+001 -2.99342651e+002 7.22136154e+001
      1.76315808e+000 -1.07391640e+002 -2.86599731e+002 -1.77335602e+002
      -1.38527740e+002 -4.94234810e+001 -6.01276855e+001 1.55000582e+001
      1.94207728e+000 3.90094727e+003</_>
    <_>
      -1.74759141e+004 -1.02754941e+004 -1.15343584e+004 6.13635132e+002
      -4.27199561e+003 -7.78424149e+001 -3.00118744e+002 1.27396533e+003
      -1.44533020e+003 4.85975189e+002 -2.73993188e+003 2.37728516e+003
      3.27003491e+003 8.24757129e+003 -4.14142334e+003 -1.73770972e+003
      -1.96867297e+003 2.40982040e+002 -2.98451563e+003 7.87153870e+002
      -2.95736353e+003 -1.05579109e+002 1.31571729e+003 -2.35531348e+003
      5.26358545e+003 -3.36894745e+002 1.92759448e+003 2.04855908e+003
      -2.70816968e+003 8.15562073e+002 7.01055664e+002 4.64008740e+003
      -2.27273779e+003 3.77200537e+003 3.34490015e+003 7.67025696e+002
      3.79370068e+003 -1.03064709e+003 -6.67405823e+002 4.49811865e+003
      3.39105273e+003 1.18062061e+003 6.98947998e+002 4.94482483e+002
      4.76425056e+001 3.74844263e+003 -7.88861572e+002 -4.33376846e+001
      8.39777283e+002 -1.16835583e+003 -6.73125305e+002 -3.97947449e+002
      1.40381592e+003 -1.60036523e+003 -3.50370331e+001 1.43011856e+002
      -6.15349670e+002 8.10555420e+002 -1.91151749e+002 -8.99265869e+002
      4.85254761e+002 2.80957317e+001 -9.15824280e+001 -5.77634216e+002
      5.67791687e+002 -2.32170303e+002 -1.53232832e+001 -1.00599319e+002
      -1.26844215e+002 1.48619995e+002 1.16898003e+002 1.20242561e+002
      -6.24390640e+001 -1.84880066e+002 7.81220484e+000 8.28125916e+001
      9.12028503e+001 6.21076050e+001 1.61183813e+003</_>
    <_>
      3.27396411e+003 1.33130732e+004 4.46324951e+003 1.69769785e+004
      -3.28934692e+003 -1.00017617e+004 -5.16570557e+002 4.88255322e+003
      9.03554749e+002 2.03388794e+002 9.62582703e+002 -4.66967865e+002
      3.57108057e+003 1.04277332e+003 3.11941138e+003 1.77066833e+003
      4.63506055e+003 -1.85360034e+003 -1.11522729e+003 9.61314160e+003
      1.24747158e+004 -1.33970081e+003 -2.68829639e+003 -4.85087695e+003
      2.23514209e+003 1.22814380e+003 1.78243652e+003 -1.74224194e+003
      -5.61660278e+002 8.20797729e+002 -3.91114990e+002 1.79918127e+003
      -7.64908081e+002 -1.34675647e+003 -1.33199188e+002
      -8.38861511e+002 2.74848145e+002 2.74159943e+002 3.02473541e+002
      1.29784436e+003 -9.10453735e+002 3.61676697e+002 -2.17362900e+002
      6.69615295e+002 -2.77877472e+002 -2.69336151e+002 2.32316620e+002
      -2.01766556e+002 8.82848053e+001 -2.31024139e+002 1.54019531e+002
      7.45721497e+002 3.10182953e+001 -4.41205261e+002 2.33075500e+002
      9.79423599e+001 9.05175095e+001 -1.19131348e+002 -4.15271851e+002
      -3.37398678e-001 4.41961708e+001 -1.37749390e+002 -6.28609581e+001
      2.84150391e+002 5.86928825e+001 1.47259617e+001 1.92333088e+001
      5.72748604e+001 -2.44745697e+002 -5.29750748e+001 3.44545212e+001
      6.21094742e+001 -2.76564369e+001 -9.78930664e+001 3.74465866e+001
      -2.38258886e+000 -1.00596352e+001 -5.72126579e+000 3.22254883e+003</_>
    <_>
      4.48140771e+003 1.53301045e+004 6.44163574e+003 1.81485781e+004
      -5.58538916e+003 -1.13709580e+004 -2.48815894e+003 6.03995166e+003
      1.08268640e+003 -2.57286304e+003 1.34256006e+003 1.14368115e+003
      -1.31520349e+003 -9.52356323e+002 -4.96147070e+003
      -3.69479053e+003 -2.10126953e+003 -5.91834290e+002 7.38690979e+002
      -3.10405884e+003 -3.86780615e+003 3.24359619e+003 -4.23660303e+003
      3.78898267e+003 -1.33337692e+002 -7.01425537e+002 -5.45499512e+002
      3.25436462e+002 -1.01983417e+003 -7.42425598e+002 -2.03160980e+002
      4.96250336e+002 6.05471802e+002 -1.24416939e+002 -2.72723633e+002
      1.93910385e+002 9.47150192e+001 4.38986053e+002 -4.63004608e+001
      -1.03108655e+003 7.80088623e+002 2.88576752e+002 1.17474213e+002
      2.32666885e+002 -9.75278259e+002 -1.57944080e+003 -1.30871997e+003
      1.02574548e+003 -6.17891052e+002 -2.51498890e+001 7.70303528e+002
      2.64629883e+003 -5.58721558e+002 -3.66334717e+003 1.72864868e+003
      1.22267737e+003 1.42602795e+003 2.11895239e+003 -4.14674805e+003
      3.16263275e+002 -2.31596265e+003 9.28717041e+002 2.78855682e+002
      -6.03536682e+001 3.83968628e+002 -1.14523186e+002 -5.25299034e+001
      -1.12202502e+003 5.53995178e+002 1.70422302e+002 -3.00310883e+002
      6.58711548e+001 -1.98703339e+002 1.46500610e+002 -1.11874214e+002
      -2.00597076e+001 2.50983696e+001 4.68246956e+001 3.03914844e+003</_>
    <_>
      4.03058252e+003 1.50255869e+004 5.49520215e+003 1.89565352e+004
      -5.23538770e+003 -1.26944873e+004 -2.20217529e+003 6.16424414e+003
      2.69999463e+003 -2.75969287e+003 7.82308655e+002 5.08534485e+002
      -8.92044006e+002 4.53900963e-001 -4.18023145e+003 -2.82500415e+003
      -1.71451294e+003 -6.50098022e+002 3.19391357e+002 -2.71182324e+003
      -2.83320313e+003 3.09102612e+003 -3.38024658e+003 3.22677808e+003
      6.20039978e+001 -8.57709778e+002 4.28896881e+002 4.77544189e+002
      5.10495209e+002 -1.21586682e+003 8.87669800e+002 -2.43134430e+002
      5.16797546e+002 1.03328049e+002 1.33459869e+002 -2.95938843e+002
      -5.83224670e+002 -1.35966528e+003 6.16613525e+002 1.16277698e+003
      -2.61130432e+002 6.24067200e+002 -3.86551392e+002 -4.63690979e+002
      5.98275513e+002 4.84375732e+002 1.57799805e+003 -1.21696680e+003
      1.10254883e+003 2.56851578e+001 -8.61686096e+002 -3.08929517e+003
      4.15868530e+002 3.72296582e+003 -1.83220544e+003 -9.91540222e+002
      -1.12389905e+003 -1.92923547e+003 4.45413232e+003 -2.29649704e+002
      2.48330859e+003 -9.42908997e+002 -9.14210510e+001 3.85482635e+001
      -4.06708557e+002 -6.70007324e+001 2.97531872e+001 1.34767004e+003
      -5.24164673e+002 -2.74198792e+002 2.21658264e+002 -1.20857941e+002
      1.57880096e+002 -1.39932983e+002 6.77071304e+001 -4.90930901e+001
      -2.61851673e+001 2.60830259e+000 3.13343945e+003</_>
    <_>
      4.47265771e+003 1.50483379e+004 6.92013721e+003 1.59404902e+004
      -5.85967578e+003 -7.67109717e+003 -1.76197498e+003 3.68260620e+003
      -5.95864502e+002 4.03016663e+002 -2.52348511e+003 -1.93559717e+003
      2.32228165e+002 5.30320679e+002 2.61156934e+003 3.62787451e+003
      -3.36243188e+003 2.82516992e+003 9.04005432e+002 -4.61780469e+003
      -1.06956946e+003 -7.14626709e+003 1.35262949e+004 -3.89426416e+003
      -1.89268262e+003 -5.48401123e+002 -2.44387427e+003 9.24715698e+002
      1.44392419e+003 1.58320142e+003 -8.62697205e+002 -9.64939575e+002
      -4.63231689e+002 -1.23817539e+001 6.54400024e+002 5.52735596e+002
      5.62112488e+002 1.94539502e+003 1.73559616e+002 -4.19103333e+002
      -2.43181091e+002 -1.19231006e+003 1.52844604e+002 -1.78611725e+002
      4.25836456e+002 1.05690259e+003 -2.84273682e+002 5.70700569e+001
      -5.06443390e+002 6.20496407e+001 8.83859253e+001 4.91111694e+002
      -2.96482819e+002 -8.40298233e+001 -4.20204391e+001
      -3.00046631e+002 -5.15127380e+002 1.02875557e+002 5.13606834e+001
      -1.91204071e+002 -1.34233521e+002 1.51439789e+002 3.98581276e+001
      -5.63829994e+001 3.32344933e+001 2.19449158e+002 -4.30654106e+001
      -2.13900513e+002 1.65847427e+002 1.11175888e+002 -1.04473198e+002
      1.22953415e+001 4.71786232e+001 2.96288147e+001 1.02208786e+001
      3.40914726e+001 -1.57951670e+001 -5.84631310e+001 3.52963477e+003</_>
    <_>
      5.94458838e+003 1.70259785e+004 3.05749847e+002 5.11580615e+003
      -6.46845752e+003 1.33633926e+004 3.00918213e+003 -4.23275146e+003
      -3.91077919e+001 -2.16671443e+000 4.24042206e+001 3.97625427e+002
      -8.52233810e+001 3.56360687e+002 1.10042773e+003 1.15228442e+003
      -2.48961646e+003 4.91336609e+002 2.97507477e+002 -1.52449670e+003
      -1.32801453e+002 -1.51623621e+003 -4.52507617e+003 1.30330603e+003
      8.18372070e+002 2.66290527e+002 -1.48896240e+002 -1.31940747e+003
      -1.69940125e+003 2.22982056e+003 -2.42915649e+003 -2.64044971e+003
      1.92493607e+002 -3.00389331e+003 -1.29647559e+003 -7.06013611e+002
      6.76926025e+003 7.44601904e+003 8.00400085e+002 3.16193799e+003
      -2.76914811e+000 -2.12234839e+003 9.70192139e+002 -7.06541687e+002
      1.13341077e+003 -3.77128448e+002 1.09246277e+003 -1.12537117e+002
      3.97192291e+002 -3.08756592e+002 -1.79081152e+003 -2.23536377e+003
      7.87260437e+002 1.22586133e+003 -4.72130890e+001 1.39634595e+003
      2.00992798e+003 8.70433838e+002 -2.60099670e+002 1.00959534e+002
      -8.20860748e+001 -1.40739777e+002 6.23514519e+001 2.48359863e+002
      -1.91287064e+002 2.59905386e+000 -8.25495987e+001 -2.54131210e+002
      1.39217453e+002 2.11115173e+002 -8.72977219e+001 -1.68647766e+001
      1.58722702e+002 -2.77002411e+001 -1.30846100e+002 -4.89142838e+001
      1.13278933e+001 3.14239368e+001 3.70960986e+003</_>
    <_>
      5.95063184e+003 1.73408184e+004 9.45635254e+002 6.75029639e+003
      -7.00004590e+003 1.43279619e+004 3.13264673e+003 -4.42758496e+003
      -3.27422668e+002 3.84424896e+002 3.87870636e+002 9.62880554e+002
      1.18770447e+002 -2.58626495e+002 7.43238342e+002 2.70856476e+001
      -2.74859351e+003 1.43408569e+003 2.14003662e+003 -1.20707263e+003
      1.35085620e+003 -3.00493433e+003 -4.39092725e+003 1.46748279e+003
      2.49485181e+003 -2.61144638e+001 7.97441406e+002 -1.45157948e+001
      9.72107910e+002 -8.13290833e+002 -2.03501678e+002 -8.90078186e+002
      -7.03536499e+002 1.79726904e+003 4.89528534e+002 5.76113647e+002
      7.97455750e+002 2.22875857e+000 -1.37465686e+003 -1.53574255e+003
      1.03258679e+003 -5.65488525e+002 -1.66684006e+002 -6.45848465e+001
      -4.09171906e+002 4.04915344e+002 -3.90889252e+002 1.14831848e+003
      -7.26634705e+002 3.17319122e+002 3.66860010e+003 3.99291919e+003
      -1.73766846e+003 -2.37865649e+003 -1.49265112e+003
      -4.25505078e+003 -4.61264111e+003 -1.76401550e+003 1.62980640e+003
      -4.36982330e+002 1.78796265e+002 3.33267426e+002 3.64941139e+001
      -1.98935623e+002 -6.52138138e+001 -4.49496643e+002
      -3.13826962e+001 6.58186035e+002 -2.11959671e+002 -5.67071609e+001
      4.83536606e+001 2.05537399e+002 -1.97550659e+002 7.49223852e+000
      -1.06940508e+000 8.02459049e+000 1.37293034e+001 1.79463177e+001
      4.65064648e+003</_>
    <_>
      6.04071484e+003 1.78342871e+004 8.66969604e+002 7.24177344e+003
      -7.21452881e+003 1.22075547e+004 3.04617505e+003 -3.85829688e+003
      2.27884766e+002 6.22508423e+002 7.84227905e+001 2.61430969e+002
      9.95301819e+002 9.11574707e+002 1.60477014e+003 9.50623413e+002
      -2.37450952e+003 1.73736646e+003 2.20627783e+003 -1.17611023e+003
      2.07885718e+003 -4.86342383e+003 -1.80397424e+003 9.18271912e+002
      2.10873462e+003 2.87738098e+002 1.50682666e+003 5.46159790e+002
      1.45137244e+003 -1.70630298e+003 1.96681836e+003 9.93601624e+002
      -2.39823730e+003 3.95856079e+003 6.64283936e+002 1.22483191e+003
      -4.20228174e+003 -4.27073926e+003 -2.70164429e+003
      -4.40519385e+003 1.59056335e+003 3.00050140e+002 -1.74194763e+003
      -7.78784058e+002 1.40947218e+001 1.47440842e+002 1.62630493e+003
      -1.01426874e+003 1.68933313e+003 1.58535934e+002 -2.00244189e+003
      -2.08307397e+003 1.15719751e+003 1.47885596e+003 7.70243774e+002
      3.01407861e+003 3.10570801e+003 9.25090637e+002 -1.31610840e+003
      3.86050232e+002 1.14158226e+002 -3.39728027e+002 -2.53080959e+001
      4.62049072e+002 3.39364746e+002 -5.81477852e+001 -3.20545883e+001
      -3.33286865e+002 7.58321533e+001 3.05120335e+001 -8.87784805e+001
      -5.94400253e+001 8.55812836e+000 -1.23748375e+002 -3.28310432e+001
      6.17598000e+001 -4.48859787e+001 -6.46525097e+000 5.51462256e+003</_>
    <_>
      4.45589209e+003 1.49503643e+004 2.68675830e+003 5.35091113e+003
      -7.58799512e+003 1.51725908e+004 3.57035449e+003 -4.88159912e+003
      2.52084717e+002 1.16625928e+003 1.13007202e+003 -1.49999109e+003
      6.23783630e+002 2.60365875e+002 -7.93498840e+002 -5.30734314e+002
      -3.97713013e+002 -1.03378870e+003 6.53998047e+002 -7.89724426e+002
      -5.44299316e+002 2.10531860e+003 2.08316138e+003 -8.77020203e+002
      -7.90114319e+002 6.26053345e+002 -9.73978760e+002 1.58911157e+003
      3.06547119e+002 -1.14460767e+003 4.12411926e+002 3.21983911e+003
      2.39440967e+003 -3.47152344e+003 1.08109094e+003 -1.46382251e+003
      -3.36255835e+003 -3.84359399e+003 4.71922900e+003 5.11514502e+003
      -4.74600098e+003 2.96596313e+003 1.86849622e+003 1.59236853e+003
      -1.86902100e+003 8.74187469e+001 -3.28877344e+003 -4.91128540e+002
      -2.04306604e+003 2.17601089e+002 -1.20999207e+003 -7.82006042e+002
      -4.77331635e+002 -7.65619965e+001 3.09264893e+002 -3.16231262e+002
      1.02797050e+002 2.37397346e+001 -2.08371918e+002 5.93796234e+001
      -5.95295288e+002 6.68188934e+001 1.68873993e+002 -5.28273621e+002
      -4.79101410e+002 3.18269592e+002 8.12940216e+001 -4.61283630e+002
      1.62038300e+002 5.47500324e+000 -1.74043427e+001 -1.71388214e+002
      2.67237762e+002 6.42034454e+001 2.51321621e+001 -5.34596519e+001
      -6.64845352e+001 -5.18174019e+001 4.16676807e+003</_>
    <_>
      5.06651074e+003 1.34181279e+004 2.15762207e+003 5.30957861e+003
      -5.56492188e+003 1.31134844e+004 2.04772693e+003 -3.29285522e+003
      2.19778076e+003 -1.64188123e+003 4.04396704e+003 -1.50793533e+002
      -1.74130664e+003 2.22238937e+002 -4.53242578e+003 -7.44543311e+003
      6.74116309e+003 -2.70584155e+003 -2.27954712e+003 4.09000464e+003
      8.73537903e+001 8.40028906e+003 7.91205713e+003 -2.01853625e+003
      -4.61766211e+003 -1.78609756e+002 -7.67351440e+002
      -1.12024475e+003 -6.08667114e+002 1.17540991e+003 7.45655212e+002
      3.51190857e+002 4.77025970e+002 1.33354578e+003 -5.41146469e+001
      2.14293320e+002 1.25386475e+003 1.28240125e+003 -1.94495251e+003
      -2.52814478e+003 2.50180884e+003 -6.18131470e+002 -9.18496216e+002
      1.61008453e+002 9.16913147e+002 -2.90760620e+002 1.54347327e+003
      -5.22192650e+001 1.31544971e+003 -5.57134949e+002 1.15983276e+003
      2.63361176e+002 3.82921417e+002 3.96551849e+002 1.70999360e+000
      3.22897827e+002 -3.50561859e+002 -4.97489700e+001 -1.14582806e+001
      1.46008057e+002 3.84749298e+002 2.82428703e+001 -1.77241470e+002
      7.67969513e+001 2.22867889e+002 -1.22017998e+002 5.67217255e+001
      1.49386108e+002 -1.38583899e+001 -8.03670959e+001 1.18028641e+001
      1.02300156e+002 -1.71460480e+002 -4.43049469e+001 -2.72196732e+001
      -3.11556835e+001 4.11216011e+001 3.62069244e+001 3.45042676e+003</_>
    <_>
      6.20932031e+003 1.52937549e+004 -2.79690894e+003 4.19779980e+003
      -3.19306274e+003 -6.40282227e+002 2.81147192e+003 1.80121570e+003
      5.77691406e+002 8.90677051e+003 -4.82912695e+003 4.35083130e+002
      -2.72640308e+003 5.65896631e+003 7.93741504e+003 1.00404795e+004
      3.42224634e+003 -3.33975024e+003 -8.45617676e+003 1.53165649e+003
      -8.15758154e+003 4.02704639e+003 -2.93365112e+003 -1.61796973e+003
      -2.02838721e+003 1.18955681e+002 2.46750595e+002 -3.91543884e+002
      -1.20368652e+003 5.13568909e+002 4.90874542e+002 -1.87623840e+003
      -5.55932556e+002 -2.78743469e+002 -1.57241541e+003 3.34830963e+002
      -1.59223157e+003 -9.31737854e+002 -3.42007416e+002
      -1.27677637e+003 8.92619263e+002 3.86541107e+002 -1.76337326e+002
      -1.65488129e+002 1.31501846e+002 3.43725952e+002 3.53634148e+001
      2.77834747e+002 -5.81895508e+002 2.18841038e+001 2.60724060e+002
      1.75978210e+002 1.08791443e+002 -1.28018036e+002 1.48388031e+002
      -2.43568451e+002 -2.91935028e+002 -2.31474121e+002
      -1.14840157e+002 -1.40311615e+002 -1.92755554e+002
      -7.88888702e+001 9.18717861e+000 -1.02498421e+002 -1.82319794e+001
      1.55663940e+002 7.67564011e+001 3.11503048e+001 -6.75783234e+001
      -2.94508152e+001 8.10117054e+000 -3.95192604e+001 2.11498260e+001
      -2.12475777e+001 1.35007187e+002 5.08956299e+001 1.55914259e+001
      -6.63533401e+001 3.96621948e+003</_>
    <_>
      7.05767871e+003 1.75825000e+004 -5.96728271e+003 -8.29943750e+003
      3.68298950e+003 -3.63828564e+003 1.50358606e+003 9.13128540e+002
      -5.40847168e+002 8.27697266e+003 2.21883984e+003 1.66842456e+003
      -1.07265247e+003 -1.15683081e+003 -2.35509668e+003
      -1.80101770e+003 -1.24907874e+003 -1.21020805e+002 6.78216125e+002
      -4.54161346e+002 1.26815112e+003 -4.16582550e+002 3.15153015e+002
      1.08456042e+003 4.41939087e+002 -7.87443176e+002 -1.62750586e+003
      3.37112244e+002 -4.38728906e+003 3.99982275e+003 -5.56514404e+003
      1.65791699e+003 -2.66782715e+002 -2.79760278e+003 -1.41388718e+002
      3.82382983e+003 -3.32799487e+003 -8.14498901e+002 -3.80425806e+003
      1.07031128e+003 -2.32864944e+002 -6.56554810e+002 -2.39957886e+002
      7.78961304e+002 -4.53024841e+002 7.29104492e+002 1.24131744e+002
      3.79892975e+002 -5.20314941e+001 2.30282211e+002 -2.51562439e+002
      -2.17876373e+002 7.32439194e+001 6.32447571e+002 -7.54978577e+002
      2.62907333e+001 8.21601257e+001 -3.91050201e+002 1.07521155e+003
      3.48283661e+002 6.37384888e+002 4.23169580e+003 -8.06209290e+002
      1.81887915e+003 -1.57343002e+002 -3.15871826e+003 -2.62788330e+002
      -1.40765039e+003 1.54761093e+002 1.71199020e+002 3.64623566e+002
      -2.76127411e+002 -1.04075058e+002 4.70861578e+000 2.35268341e+002
      8.53427658e+001 -6.77139893e+001 -1.63184834e+001 1.14467346e+003</_>
    <_>
      7.34850586e+003 1.85061797e+004 -6.28362744e+003 -8.81033691e+003
      3.76634521e+003 -3.44989722e+003 1.41744739e+003 9.00754761e+002
      -3.30935608e+002 8.33705566e+003 2.14836206e+003 2.10736401e+003
      -1.50987219e+003 -1.12479260e+003 -2.17304150e+003
      -2.10575903e+003 -1.49141174e+003 -6.61232376e+001 1.01948456e+003
      -2.87843140e+002 1.26522131e+003 -7.10781006e+002 3.60320618e+002
      6.04615417e+002 5.02346466e+002 -4.38920654e+002 -1.14044495e+003
      -5.28975945e+001 -2.39665698e+003 1.98726404e+003 -2.54714355e+003
      7.68002075e+002 1.17674999e+001 -1.61267834e+003 1.27826927e+002
      2.03953015e+003 -1.36384106e+003 -1.00324478e+002 -2.41841357e+003
      3.27761658e+002 -1.79605240e+002 -2.89898895e+002 -1.54857376e+002
      1.02423859e+002 -6.86750122e+002 2.53352707e+002 -1.65558914e+002
      -3.29858780e+001 6.55326782e+002 1.90364563e+002 3.19225708e+002
      2.62335846e+002 -1.80408752e+002 -3.60486069e+001 1.08580456e+001
      -5.93634453e+001 -1.32892113e+001 6.52644592e+002 -9.76643433e+002
      -3.66479218e+002 -5.81014709e+001 -4.22007568e+003 1.70146301e+003
      -3.01159912e+003 -2.53014587e+002 4.91932959e+003 6.61069763e+002
      2.96056641e+003 -1.35576340e+002 -3.45522156e+002 -6.65779175e+002
      6.57978333e+002 3.46961212e+002 -1.20043098e+002 -7.18632385e+002
      -3.31917786e+002 1.76305374e+002 7.83852310e+001 7.11544800e+002</_>
    <_>
      7.48869727e+003 1.85115996e+004 -6.78743457e+003 -8.82984668e+003
      3.97051440e+003 -4.89755713e+003 1.79375598e+003 9.90601501e+002
      3.18491119e+002 8.10032520e+003 1.26785181e+003 1.57511914e+003
      -1.36545898e+003 -8.07814880e+002 -1.49804883e+003
      -1.90547083e+003 -7.14071289e+002 -5.66182068e+002 5.25600220e+002
      -5.43800659e+002 9.24520447e+002 -2.42609253e+002 5.80383728e+002
      -6.49190430e+002 1.76571533e+002 4.33300507e+002 7.83410278e+002
      -2.33775620e+002 2.01674182e+003 -1.71187524e+003 2.07432983e+003
      -8.27529419e+002 1.25787598e+002 1.81750598e+003 5.95563965e+002
      -2.08083228e+003 1.49534583e+003 5.10181961e+001 8.77559998e+002
      8.92619629e+002 -7.75143188e+002 -1.38536194e+002 3.83232522e+000
      -7.38108398e+002 -8.28842697e+001 -8.80664124e+002 1.06745581e+003
      -4.73616272e+002 1.10383081e+003 -4.91036163e+002 9.60688110e+002
      -2.88413788e+002 -6.14399185e+001 6.63875504e+001 8.42525864e+001
      -8.07261292e+002 -3.96884369e+002 -2.88038300e+002 3.54763062e+002
      3.64418640e+002 -9.74368713e+002 -3.99359692e+003 -8.92602478e+002
      -3.96577301e+002 -7.51791443e+002 -9.63250671e+002
      -5.84912720e+002 -5.15808740e+003 6.35012283e+001 8.12534973e+002
      1.23165298e+002 -8.06478699e+002 -4.99917908e+002 4.16486877e+002
      6.75463501e+002 2.71955273e+003 -5.06052460e+002 -6.44147522e+002
      1.94426563e+003</_>
    <_>
      7.43791309e+003 1.86058164e+004 -6.13415527e+003 -9.26533691e+003
      4.00220801e+003 -3.62004932e+003 1.16433594e+003 1.22410547e+003
      -3.93122742e+002 8.03731738e+003 1.34505505e+003 7.75276794e+002
      -1.26138037e+003 -5.54269592e+002 -8.72980103e+002
      -1.35515356e+003 -1.15702979e+003 -4.69632721e+002
      -8.52571774e+000 -8.81740601e+002 8.85374603e+001 -6.24888123e+002
      9.95637939e+002 -8.56530334e+002 -3.01623962e+002 9.98975464e+002
      6.21699646e+002 1.18489122e+000 2.61572388e+003 -2.20228271e+003
      3.06726147e+003 -5.24302551e+002 6.00809570e+002 2.29981030e+003
      5.41189453e+002 -2.63501660e+003 1.55711487e+003 2.26572464e+002
      1.84831543e+003 1.70891577e+003 -1.74275513e+003 8.35621719e+001
      1.97136555e+001 -4.91355652e+002 7.64035988e+000 -1.04486194e+003
      1.23722290e+003 3.17459137e+002 1.08355066e+003 -2.70300018e+002
      4.05852325e+002 1.17714001e+003 -8.63786316e+001 -8.27732178e+002
      3.95200226e+002 9.30628296e+002 5.00019836e+002 -1.79749969e+002
      -6.52241577e+002 -5.52407532e+002 -1.44583359e+002
      -7.11528442e+002 -1.09653625e+003 3.05278320e+003 1.66218103e+003
      -2.44157104e+003 -6.50570740e+002 2.53377637e+003 -4.05236389e+002
      -3.99518677e+002 5.70293579e+002 -1.74128082e+002 7.33241699e+002
      -5.19622314e+002 -2.89117432e+002 -3.72523560e+003 6.58819214e+002
      7.69442444e+002 1.06851599e+003</_>
    <_>
      7.92266064e+003 1.91972969e+004 -6.88742285e+003 -8.44055176e+003
      3.30046167e+003 -4.29141016e+003 8.24064331e+002 6.35921143e+002
      8.42965576e+002 4.60133887e+003 9.84405090e+002 1.84826025e+003
      -1.51396216e+003 -5.84418518e+002 -8.28062561e+002
      -2.00252246e+003 -2.01335022e+002 -3.28307953e+002 4.44888367e+002
      3.96663788e+002 1.75371863e+003 -2.72825226e+002 3.58568390e+002
      -6.65801392e+002 1.39423233e+002 6.39082581e+002 1.41479224e+003
      -1.14715271e+002 2.08306030e+003 -2.72264185e+003 3.69194971e+003
      -2.19626050e+003 -6.92124512e+002 2.92555981e+003 -5.71766357e+002
      -2.24901221e+003 1.84032129e+003 1.22483911e+003 1.90568481e+003
      -1.21671985e+003 7.30916382e+002 7.35426697e+002 1.07548816e+003
      3.47556549e+002 3.42133118e+002 2.28127182e+002 -1.84991736e+003
      -6.38343872e+002 -2.57362646e+003 2.95362549e+002 -1.37665906e+003
      -5.79837646e+002 5.50655518e+002 5.16662109e+002 -8.44634018e+001
      3.08159180e+002 3.67016754e+001 6.57569153e+002 5.06061066e+002
      1.20985069e+001 7.18074707e+002 6.33992041e+003 1.38651624e+003
      -1.69617053e+003 -5.67123657e+002 2.14116138e+003 9.34698608e+002
      1.37836597e+003 4.98423218e+002 -2.20986084e+002 -3.00948853e+002
      6.31070984e+002 -6.01850586e+002 2.11983505e+002 3.46925812e+002
      1.49563794e+003 -2.87003418e+002 -1.83138245e+002 2.28393213e+003</_>
    <_>
      8.00680566e+003 1.91666152e+004 -5.74900146e+003 -9.76880371e+003
      3.64907617e+003 -2.42346802e+003 -8.67399902e+002 -1.56499338e+001
      4.82263214e+002 -5.97552832e+003 -1.45357837e+003 -9.26252991e+002
      1.19187170e+003 7.62086304e+002 1.58248367e+001 5.91643250e+002
      -2.70553741e+002 1.64491776e+002 3.62578156e+002 1.23300972e+002
      -3.06841522e+002 -1.23871658e+002 -3.02727173e+002
      -5.80718323e+002 1.04751534e+002 -2.16148941e+002 8.00106812e+002
      6.77736816e+002 7.07795044e+002 -9.33436584e+001 -2.43743210e+002
      2.80310645e+003 6.03101929e+002 -3.82760254e+003 -1.54653275e+002
      -7.11591873e+001 1.26889954e+003 -8.75982666e+001 2.87522363e+003
      -4.24019531e+003 3.37636572e+003 1.24653650e+003 -8.05725784e+001
      1.13691162e+003 8.06388000e+002 1.36163281e+003 -8.96868591e+002
      -8.80960388e+001 -1.83152063e+003 2.29451782e+002 -1.05527307e+003
      -2.07850815e+002 -1.39265869e+002 3.39378357e+002 3.32982635e+002
      -3.41363159e+002 -4.68112305e+002 -4.47605957e+002 6.61189957e+001
      2.14319717e+002 -1.36567322e+002 -1.07213208e+003 -7.12461182e+002
      1.31192676e+003 2.63798431e+002 -1.16211523e+003 -1.75863037e+002
      1.00941879e+002 -6.97501297e+001 -3.61486588e+001 -7.05062637e+001
      1.54290466e+002 2.99460327e+002 -6.56089661e+002 -4.98088281e+003
      8.59571655e+002 3.04313316e+001 -5.73448425e+002 5.25052979e+003</_>
    <_>
      7.99387451e+003 1.92135820e+004 -5.43616064e+003 -9619.
      3.32187183e+003 -1.68570874e+003 -1.05591650e+003 -1.21486198e+002
      5.25773926e+002 -6.98183740e+003 -1.45650269e+003 -7.44038940e+002
      9.35717590e+002 6.51132141e+002 -1.07906395e+002 5.21278564e+002
      -5.57540466e+002 2.98027344e+002 5.15074524e+002 1.70822601e+002
      -8.63134689e+001 -2.80956390e+002 -4.14844818e+002
      -2.71297760e+002 3.30526489e+002 -3.99453888e+002 4.36713257e+002
      6.29368164e+002 7.48130035e+001 3.70952515e+002 -7.80008545e+002
      2.67072998e+003 7.90966064e+002 -3.87769092e+003 1.19253075e+002
      3.33433014e+002 1.10739941e+003 2.22909882e+002 2.29939697e+003
      -4.31754053e+003 3.32690820e+003 1.26247375e+003 2.40713673e+001
      1.18537830e+003 6.62440002e+002 1.20927393e+003 -1.21518628e+003
      -2.12352859e+002 -1.48124573e+003 1.93074615e+002 -9.81803650e+002
      -2.16903961e+002 -9.57027340e+000 3.45145844e+002 2.92630707e+002
      -2.28953125e+002 -3.80825165e+002 -3.28990234e+002
      -3.13929382e+002 -2.33594360e+002 -5.38100471e+001
      -1.56753540e+003 -4.10430481e+002 5.76592590e+002 3.98300110e+002
      -7.07036285e+001 -1.02528732e+002 4.02007782e+002 -1.29033920e+002
      -1.43466019e+002 -7.52265787e+000 -3.54846313e+002
      -1.55243591e+002 6.95300537e+002 5.13206055e+003 -7.85392212e+002
      -8.03108597e+001 5.35736877e+002 4.07753564e+003</_>
    <_>
      7.96434326e+003 1.86447520e+004 -5.43384570e+003 -9.17184082e+003
      3.08257568e+003 -1.97579797e+003 -1.27772754e+003 -2.07173004e+002
      8.33898560e+002 -9.97828516e+003 -2.22439551e+003 -1.79506152e+003
      1.64856067e+003 1.24415381e+003 8.19297546e+002 1.62506616e+003
      6.83578857e+002 3.20105255e+002 -2.38021317e+002 3.34046478e+002
      -5.72130554e+002 -1.15928125e+001 -3.80907104e+002
      -6.71510376e+002 -1.96807739e+002 -2.37405899e+002
      -1.63742599e+001 1.67118362e+002 5.75537903e+002 -2.94875916e+002
      -1.50585175e+002 -1.47364197e+002 2.23633652e+002 -2.56886349e+001
      3.24802979e+002 -2.64077576e+002 -3.03464722e+002 -1.29564380e+003
      -4.71406921e+002 1.30130774e+003 -5.48018372e+002 -5.26914978e+002
      -3.94602661e+002 -6.04050232e+002 3.04893524e+002 -6.76309570e+002
      2.28771191e+003 3.55429871e+002 2.26393555e+003 -4.93230347e+002
      1.32735779e+003 -2.46308929e+002 -5.17037163e+001 -2.68360382e+002
      -4.36924255e+002 -2.91807220e+002 -1.11182623e+001 1.27822067e+002
      1.02262396e+003 6.08961121e+002 -1.23526878e+002 1.98690027e+003
      8.92345764e+002 -3.28518677e+003 -1.79390991e+003 1.60661389e+003
      6.56814270e+002 -3.95851831e+003 3.79587250e+002 6.33299011e+002
      -3.30388062e+002 5.02592072e+002 -3.64728424e+002 -4.18829498e+002
      -6.96298828e+002 -3.51290381e+003 6.11297485e+002 4.60294373e+002
      4.56504297e+003</_>
    <_>
      7.69105566e+003 1.79924941e+004 -4.44454834e+003 -9.14465039e+003
      3.16689966e+003 3.64786873e+001 -1.72751233e+003 -1.06115166e+002
      -8.26161652e+001 -1.01804951e+004 -2.23491064e+003
      -2.40862158e+003 1.77602649e+003 8.47239563e+002 1.06017004e+003
      2.19937036e+003 3.39491486e+002 2.75666473e+002 -8.59147400e+002
      -5.98032410e+002 -1.75188574e+003 -3.39046692e+002 1.58343582e+002
      -5.44316589e+002 -4.51207031e+002 7.58680267e+001 -8.04814087e+002
      2.97540405e+002 3.28061676e+002 -2.57395691e+002 -7.22022400e+002
      7.36892273e+002 1.26856189e+003 -4.30240540e+002 5.21152405e+002
      -4.12882813e+002 -5.59049011e+002 -1.48094336e+003
      -7.28244095e+001 3.44625391e+003 -2.23987085e+003 -4.76231201e+002
      -7.89142334e+002 -7.27175842e+002 -3.28021484e+002
      -1.38796765e+003 3.86130054e+003 1.10144336e+003 4.39425049e+003
      -8.47565247e+002 1.78027673e+003 1.74290186e+003 -5.92694763e+002
      -1.33369080e+003 -1.11973473e+002 1.33779321e+003 9.42173218e+002
      -9.45596695e+001 -3.26198547e+002 -4.15213715e+002 2.59637470e+001
      1.22243921e+003 8.47257156e+001 5.22220581e+002 1.04203552e+003
      -1.03591270e+002 -8.34720383e+001 3.05951611e+003 -3.63804749e+002
      -5.60631653e+002 1.60932480e+002 -4.49118195e+002 1.96722351e+002
      2.52361404e+002 4.87702118e+002 3.23216846e+003 -5.50480286e+002
      -4.96924469e+002 4.77320850e+003</_>
    <_>
      8.09453955e+003 1.73293691e+004 -4.87670996e+003 -7.13282422e+003
      1.88088330e+003 -1.55926428e+003 -2.67360498e+003 -9.39029465e+001
      1.16805225e+003 -1.13999785e+004 -1.14598340e+003 -6.58131958e+002
      4.79134033e+002 3.82553467e+002 2.52856613e+002 -1.79364548e+002
      3.14456250e+003 5.25409973e+002 -8.63445129e+002 3.94553162e+002
      1.21378700e+002 4.91531128e+002 1.54242996e+002 2.69702484e+002
      -4.81757385e+002 -3.95748291e+001 1.52156174e+002 -1.11317651e+003
      -2.35047559e+003 -8.38867188e+001 4.48258545e+002 -4.22756641e+003
      -2.53760254e+003 5.46868896e+003 -7.18943054e+002 1.87719800e+003
      -1.75537170e+003 1.17820935e+003 -4.22279053e+003 2.88908179e+003
      -2.69896191e+003 -1.56992224e+003 6.69444153e+002 -6.38792542e+002
      -1.16743091e+003 -4.00233154e+002 -4.86864404e+003
      -1.49682104e+003 -3.88019873e+003 8.24898621e+002 -1.08151733e+003
      -8.48451477e+002 4.38744446e+002 8.19807556e+002 8.34495850e+001
      -1.00488098e+003 -4.43681000e+002 4.91875671e+002 -8.96702942e+002
      -3.70354340e+002 5.40941849e+001 -2.05332690e+003 -2.01208664e+002
      1.33476147e+003 2.16497696e+002 -9.32459839e+002 -2.97529175e+002
      2.93622253e+002 4.56206932e+001 4.72568474e+001 1.65622894e+002
      5.02947960e+001 8.39761276e+001 2.78492928e+001 -1.16854111e+002
      3.88687172e+001 -1.64856739e+001 7.53617859e+000 3.73862671e+003</_>
    <_>
      2.16550508e+004 -9.45699219e+003 1.34345932e+002 1.27390976e+002
      1.42029388e+002 7.88195618e+002 1.78610519e+002 2.53789453e+003
      6.44863281e+001 1.78702564e+001 -1.77455054e+003 4.19841406e+003
      1.85525159e+003 5.34961121e+002 4.01380664e+003 -2.77095886e+002
      2.61959692e+003 -5.12874658e+003 5.04904492e+003 -2.42608423e+003
      2.55072266e+002 -4.79618744e+002 1.77621289e+003 1.20326001e+003
      9.47499268e+002 -3.46702246e+003 6.06940283e+003 -2.90377905e+003
      -4.20976660e+003 1.32514697e+003 1.61025720e+003 -1.77973831e+002
      3.40515698e+003 3.56341187e+002 4.51359894e+002 -8.27960388e+002
      -1.36242859e+003 -2.80647430e+002 9.14792908e+002 -9.34801453e+002
      5.71798401e+002 -1.04719580e+003 3.03130713e+003 -9.18844910e+002
      2.08245239e+003 -1.04805779e+002 -2.88714355e+003 -8.57157822e+001
      3.55641309e+003 3.22410706e+002 7.68118103e+002 -3.09481476e+002
      -2.24692627e+003 -1.48052994e+002 -2.92326904e+002
      -1.94214767e+002 1.93171570e+002 3.56093018e+003 2.05438818e+003
      -3.11026306e+002 -6.04277161e+002 9.96929855e+001 -1.55312573e+003
      3.50215454e+002 -8.04649536e+002 1.39844742e+002 -1.33248022e+003
      5.35514893e+002 1.36025073e+003 2.60905884e+002 -5.27060364e+002
      1.39777618e+002 4.97200043e+002 1.75891998e+002 -2.21147270e+001
      -5.80993538e+001 -5.94751740e+001 -4.69456062e+001
      -9.84850195e+003</_>
    <_>
      1.54517734e+004 -7.98464600e+003 2.94829834e+003 -1.65187915e+003
      -5.42917236e+002 3.17756494e+003 -2.12615112e+003 7.14019727e+003
      1.84418982e+003 1.80433386e+003 1.56758081e+003 -2.51099976e+003
      -6.32420996e+003 4.27120850e+003 -2.24920093e+003 -9.87024963e+002
      1.21539912e+004 8.09753906e+003 -1.33196533e+003 -3.15342944e+003
      3.23974060e+002 -6.05296436e+003 -8.16311874e+001 4.07260669e+003
      1.58289771e+003 -1.48188318e+003 -1.59742969e+003 -4.41652930e+003
      -1.93718787e+003 -6.33226990e+002 2.21665747e+003 5.23280396e+002
      7.20209885e+001 -1.89889600e+003 -1.44623206e+003 8.43741882e+002
      1.49185034e+003 -2.72255518e+003 1.33976379e+003 1.05360352e+003
      3.58123718e+002 -1.02824554e+002 4.20115814e+002 -4.54440460e+002
      1.47079187e+003 -4.23570099e+002 4.76645538e+002 7.08834534e+001
      -2.18529877e+002 -4.67165253e+002 -3.81498108e+002
      -5.54189209e+002 -4.83572479e+002 -5.38194885e+002 1.47020523e+002
      -1.58719803e+002 -7.35480164e+002 -9.52446167e+002
      -1.35184680e+003 1.75888275e+002 7.30851746e+002 1.54128677e+002
      -1.29428238e+002 -1.75840340e+001 1.92613129e+002 7.01452589e+000
      1.01464960e+003 -1.67657776e+002 -5.08498627e+002 2.16136200e+002
      -3.27433701e+001 -8.10514297e+001 -2.17751816e+002
      -5.82971764e+001 7.10251856e+000 -4.65690193e+001 -1.76710419e+002
      2.25630665e+001 -5.94208740e+003</_>
    <_>
      2.18329395e+004 -1.01809678e+004 -3.47663428e+003 2.53015674e+003
      1.03560376e+003 -3.16062720e+003 1.82442108e+002 -5.69723584e+003
      -7.03781555e+002 -5.10468689e+002 -2.85267029e+002 3.87040283e+003
      1.80244519e+003 -1.16734154e+002 5.76707031e+003 -2.55809595e+003
      1.45986420e+002 -2.67994092e+003 3.96717871e+003 -2.14752051e+003
      -1.43315027e+003 1.21954822e+003 1.72342102e+003 3.29743164e+002
      6.06099854e+001 -2.20771558e+003 2.78820093e+003 -5.58446924e+003
      -2.55089502e+003 -2.00185876e+003 -2.53801224e+002 1.12877954e+003
      4.11526489e+001 2.15176727e+002 -3.19549652e+002 2.01458069e+003
      2.40595752e+003 -4.99137634e+002 8.26992554e+002 -4.45660370e+002
      -3.21444482e+003 6.65261719e+002 -4.15592920e+003 9.19997025e+000
      -3.18747363e+003 1.81115051e+003 2.65625610e+003 1.63237695e+003
      -2.65146948e+003 -2.85333160e+002 -4.53014862e+002 3.50221672e+001
      3.01506201e+003 -1.01959546e+003 1.24868579e+003 9.65878525e+001
      4.01890686e+002 -3.58316235e+003 -4.37136993e+002 7.90421448e+002
      5.34421509e+002 1.01724976e+002 3.18712646e+002 -4.36394012e+002
      4.62266022e+002 3.18221588e+002 -1.47500696e+003 4.49054241e+000
      1.35949622e+003 5.53808594e+002 -3.70255066e+002 4.11316620e+002
      7.09468765e+001 -8.37530823e+001 1.05485176e+002 4.66905441e+001
      2.79680542e+002 1.05780869e+001 -1.23080576e+004</_>
    <_>
      2.19598516e+004 -9.57881641e+003 -3.71926611e+003 3.31893774e+003
      4.42648102e+002 -4.05413184e+003 -7.31683411e+002 -9.83817969e+003
      -2.48476221e+003 -1.23704193e+002 -2.61976898e+002
      -9.80532471e+002 -5.20440674e+002 -2.54619568e+002 1.08193054e+003
      -3.22570190e+003 -1.27201367e+003 3.32883105e+003 -3.18320313e+003
      3.43193970e+002 -7.31699753e+001 4.24020386e+002 -2.99569611e+002
      -1.82955719e+002 6.41188599e+002 -3.92221100e+002 -9.25458450e+001
      -1.39386490e+002 8.77269165e+002 -8.28513062e+002 -4.24700287e+002
      -8.71888062e+002 -1.78173120e+003 -1.26549097e+003
      -8.99665771e+002 4.69256561e+002 -9.97528015e+002 6.75839661e+002
      4.88434601e+002 -3.48275208e+002 -6.24069641e+002 1.39618420e+003
      7.96352966e+002 -5.07873474e+002 9.86093445e+002 1.22711169e+003
      -1.57723328e+003 3.35721283e+001 -1.27509537e+002 -1.43279919e+003
      3.20171558e+003 7.79971802e+002 1.66342712e+003 8.96993332e+001
      -2.51463013e+003 6.97436646e+002 2.16479370e+003 4.35393799e+002
      2.59162445e+002 2.05402847e+002 2.32726654e+002 1.83694744e+001
      -3.21035718e+003 1.30178528e+002 1.94011673e+002 1.62533118e+003
      -1.37114395e+002 -2.19385727e+002 -4.18269104e+002
      -7.05025818e+002 1.50271985e+003 -1.13311066e+002 -4.22101105e+002
      -6.99198853e+002 -2.34900314e+002 -6.10314697e+002
      -4.18190137e+003 5.78122986e+002 -1.22805938e+004</_>
    <_>
      2.17152637e+004 -9.85403613e+003 -2.73189185e+003 2.48098999e+003
      -6.64909210e+001 -2.66450195e+003 -7.51070129e+002
      -6.73643750e+003 -1.12992883e+003 9.48652039e+001 -2.89336914e+002
      -6.06404495e+000 4.60894379e+002 -1.32308630e+003 2.67964355e+003
      -2.47588452e+003 -7.24017639e+002 1.49368750e+003 1.34977661e+003
      -7.27104797e+001 -2.04599670e+003 8.05025940e+001 -1.66058151e+002
      -1.28819055e+003 -9.72159546e+002 -3.08276099e+003 4.38075293e+003
      -2.00703040e+003 2.45115757e+001 5.44672119e+002 -1.94646350e+003
      3.47934479e+002 9.32550110e+002 7.02980591e+002 1.55662598e+003
      -3.21180640e+003 -3.76997656e+003 1.86403137e+003 -8.30729187e+002
      1.20132458e+003 1.82537415e+003 -8.32941223e+002 2.90478516e+003
      1.53393811e+003 1.11115918e+003 -9.79410095e+002 2.44768286e+003
      -7.93619934e+002 -5.28359863e+002 2.28208786e+002 -3.03681421e+003
      6.35907776e+002 -5.79769249e+001 -3.01484985e+002 2.20227026e+003
      -5.46974365e+002 -1.62703345e+003 -7.04418945e+002
      -9.22951599e+002 -4.10298279e+002 -4.89181122e+002
      -2.31402755e+000 1.45108960e+003 -8.03214493e+001 2.78316956e+002
      -3.81259251e+000 2.16570239e+003 -4.65936890e+002 -3.78627539e+003
      -1.36592993e+003 2.36548486e+003 -7.33591919e+002 -1.22393005e+003
      -1.26291183e+002 -1.01089409e+002 -7.67665024e+001 1.67353928e+002
      -1.95995102e+002 -1.29001768e+004</_>
    <_>
      2.14196328e+004 -1.02787080e+004 -4.66722949e+003 2.85358936e+003
      3.84474579e+002 -4.28667529e+003 -9.52861145e+002 -9.50591895e+003
      -1.33468115e+003 5.23832893e+001 -3.43674683e+002 -2.99863672e+003
      -1.80584503e+002 -2.93926514e+002 6.17809875e+002 -3.31279639e+003
      -1.25089075e+003 5.10800098e+003 -4.93693896e+003 1.21708313e+003
      5.72912048e+002 -8.20686584e+002 -1.57227051e+003 -3.72779266e+002
      -2.36071320e+002 -1.04076927e+002 -1.81785754e+003 8.14088623e+002
      -6.22995605e+002 1.89783362e+003 3.05786194e+002 -5.50457336e+002
      2.30825537e+003 1.02497974e+003 1.19019031e+003 -3.13459546e+003
      -3.29405933e+003 9.92982178e+002 -4.06865234e+002 2.20950485e+002
      1.33734985e+003 1.19901428e+003 3.16332275e+003 -8.66403198e+000
      1.84131152e+003 1.09605293e+002 2.57481860e+003 -1.34005957e+003
      -1.21838904e+003 -7.21450500e+002 -1.08058540e+002
      -1.12770111e+002 2.77231537e+002 -1.68190826e+002 -4.28103607e+002
      -4.86700439e+002 -3.65325226e+002 -5.33884583e+002
      -1.44904480e+002 6.86481628e+002 -6.12988220e+002 -4.04442352e+002
      1.78328052e+003 6.54237080e+000 2.57281464e+002 -1.27234338e+003
      -1.53367529e+003 7.07319397e+002 3.16412012e+003 2.15770630e+003
      -3.39836255e+003 7.05171143e+002 1.06789001e+003 3.58511597e+002
      1.22221687e+002 1.46936844e+002 3.53293701e+002 1.23073570e+002
      -1.20269131e+004</_>
    <_>
      2.20411816e+004 -9.62213281e+003 -3.72204004e+003 3.39820435e+003
      2.32399399e+002 -4.12636719e+003 -5.28993408e+002 -1.00969746e+004
      -2.43007422e+003 1.58888840e+002 1.91136826e+002 -1.09359973e+003
      -9.03541565e+002 -7.79483093e+002 1.61690979e+002 -2.04665784e+003
      -1.29918311e+003 2.85934253e+003 -2.62592236e+003 6.08728638e+002
      -2.47262268e+002 6.84863953e+002 9.94651794e+001 -6.13754578e+002
      2.24163269e+002 1.58475372e+002 4.56921661e+002 -9.90243347e+002
      1.92128479e+003 -1.83174219e+003 -7.00466492e+002 -2.51613266e+002
      -3.63653003e+003 -1.73264832e+003 -1.77707874e+003 1.73563623e+003
      2.42855865e+002 -3.24857758e+002 7.87272400e+002 1.41897476e+002
      -2.86390411e+002 5.90860718e+002 -2.26285599e+002 -6.88200378e+002
      6.44778992e+002 -1.03036888e+002 -2.55626978e+003 3.46306641e+002
      1.62159241e+003 1.40572538e+001 1.66827466e+003 -8.00897751e+001
      -8.40009079e+001 2.46275192e+002 -1.53538159e+003 4.08262817e+002
      8.43468201e+002 7.28062805e+002 1.45133467e+001 -2.63749207e+002
      2.98171936e+002 2.15118484e+002 -2.31095264e+003 2.33881485e+002
      -2.29926880e+002 6.22337769e+002 9.61992981e+002 -2.23923538e+002
      -3.96953308e+002 -8.22699585e+002 2.81518951e+002 -1.08554304e+000
      4.78824646e+002 5.73219543e+002 2.20740143e+002 6.79503540e+002
      4.94517871e+003 -7.65124939e+002 -1.36076592e+004</_>
    <_>
      2.11459316e+004 -8.90090820e+003 -2.96108643e+003 2.22821997e+003
      6.35351906e+001 -2.85972241e+003 -1.22646521e+003 -6.41227490e+003
      -9.88807739e+002 2.89445648e+002 3.62765045e+002 -1.68303101e+003
      5.12909973e+002 3.40287476e+001 2.59630188e+002 1.33622849e+002
      -9.45517883e+002 1.80978735e+003 -3.25984546e+003 5.71434692e+002
      1.23107129e+003 -1.06759595e+003 -1.64750732e+003 5.53036919e+001
      3.46883026e+002 1.17219836e+003 -4.52218848e+003 1.50958203e+003
      -2.38228687e+003 2.53958618e+003 2.98776831e+003 -4.48707672e+002
      9.05812695e+003 2.00944116e+003 1.92280188e+003 -1.69262561e+003
      2.49946338e+003 -1.11022498e+003 -1.39777356e+003 -1.66103625e+003
      -8.42725403e+002 -1.56233826e+003 -4.75337256e+003 9.43744324e+002
      -2.65781250e+003 1.55485254e+003 -1.61901978e+003 2.55751123e+003
      -8.62605133e+001 1.73370996e+003 -1.85730621e+002 -9.26198608e+002
      -1.61260229e+003 9.56773682e+002 3.37028961e+002 3.09262970e+002
      1.64451996e+002 1.54720837e+003 3.76749695e+002 -9.16412842e+002
      5.17328857e+002 1.25473053e+002 -6.53598480e+001 1.27915344e+001
      -5.12898804e+002 3.94699516e+001 2.96649323e+002 -3.73828094e+002
      -1.43130139e+003 -5.80768921e+002 8.58886292e+002 -1.36565643e+002
      -3.53761108e+002 1.90408493e+002 -1.05256531e+002 1.40436163e+001
      1.54990067e+002 -1.28799301e+002 -1.18013438e+004</_>
    <_>
      2.21802578e+004 -1.14396123e+004 -3.04187012e+003 2.09897632e+003
      1.57639160e+002 -2.95742603e+003 -4.76822906e+002 -6.63185107e+003
      -1.46560889e+003 1.05074609e+003 5.59950500e+002 -9.32757141e+002
      -5.64759331e+001 -1.54931323e+003 -1.06854889e+002
      -4.56876709e+002 -1.61538806e+003 2.67676025e+002 -1.28347119e+003
      1.01549658e+003 -1.13226501e+003 9.60378235e+002 2.07441925e+002
      -2.06585156e+003 -1.16450232e+003 1.05041101e+003 9.01795349e+002
      -7.78552429e+002 2.69418140e+003 -2.13863062e+003 -8.93694641e+002
      1.37625073e+003 -4.08580981e+003 -1.68767834e+003 -1.96991541e+003
      2.83842432e+003 2.89002905e+003 -2.08090894e+003 1.72687576e+002
      6.92621155e+002 2.71383026e+002 -1.82708582e+003 -2.22978345e+003
      -5.64412903e+002 -5.79227844e+002 -2.67336938e+003
      -2.57991724e+003 5.56409225e+001 3.98265771e+003 2.62737964e+003
      -2.68743311e+003 -1.17731506e+003 -2.56309082e+003 5.08406738e+002
      1.66715479e+003 -7.87344727e+002 -2.62581519e+003 8.06560059e+002
      -4.94413055e+002 -6.96430298e+002 -1.32902695e+002 2.58028809e+002
      2.67434595e+003 6.03925514e+001 -1.20639549e+002 -1.31716602e+003
      -2.81281586e+002 2.80510712e+002 1.05428047e+002 9.16046875e+002
      -1.62002173e+003 2.36654663e+001 -4.31448898e+001 -1.83260994e+001
      -3.32140388e+001 -2.55281540e+002 -1.98558496e+003 4.73131836e+002
      -1.40006768e+004</_>
    <_>
      2.24300820e+004 -1.09746309e+004 -1.48640405e+003 8.21482239e+002
      6.71056824e+001 -2.61634430e+002 -2.39737411e+002 -1.54180237e+003
      -3.17311279e+002 -3.49323792e+002 1.46526611e+003 5.80768372e+002
      -1.70400671e+003 1.63748376e+003 -5.14973584e+003 5.85821973e+003
      3.83228760e+003 -3.30450879e+003 3.62223560e+003 -1.68513184e+002
      -2.02887741e+002 -1.48945056e+003 -8.64311890e+002 7.18115112e+002
      3.88308655e+002 9.99453003e+002 -2.16494189e+003 2.86517676e+003
      1.57804163e+003 7.46863892e+002 -1.56893323e+003 1.25558289e+002
      -1.91585102e+001 6.74570313e+002 2.09203296e+003 -2.44521680e+003
      -1.94212524e+003 2.57200122e+003 -2.28089905e+001 2.66797211e+002
      1.38762134e+003 1.47538223e+002 -1.17435999e+003 8.24265564e+002
      -9.91893799e+002 -2.31219434e+003 -1.24514404e+003 4.58499634e+002
      2.63799658e+003 9.54570068e+002 -1.10365417e+003 9.50702438e+001
      4.39151074e+003 1.61797217e+003 1.56754285e+003 -1.34351306e+003
      -2.11497998e+003 -2.16215015e+003 -1.52015100e+003
      -2.05167383e+003 -8.97350037e+002 7.75957153e+002 -3.07574414e+003
      -8.51120853e+000 2.81470215e+002 1.42029443e+003 -1.92126617e+002
      -3.73059959e+001 2.36469678e+003 -1.71245987e+002 5.43892334e+002
      1.07674431e+002 3.98579254e+002 -1.65731888e+002 -1.08160179e+002
      3.09579964e+001 -1.09355763e-001 4.55009880e+001 -1.48249131e+004</_>
    <_>
      2.31464277e+004 -1.06614932e+004 -2.62636621e+003 1.91889648e+003
      2.47038513e+002 -2.90133398e+003 5.57865234e+002 -6.27246533e+003
      -1.77343628e+003 -6.70773560e+002 1.19799170e+003 2.54425488e+003
      -5.98093384e+002 1.81020618e+003 -2.16699170e+003 3.74725220e+003
      3.25522021e+003 -3.41382617e+003 3.48888184e+003 3.33363739e+002
      2.33630943e+001 2.00218307e+002 3.93199097e+002 1.63619299e+003
      1.03603503e+003 3.00224707e+003 -4.16408350e+003 1.16753442e+003
      1.59256238e+003 -2.64623260e+002 -3.53054077e+002 -2.55587502e+001
      -1.97302209e+003 -1.02189247e+002 1.31223450e+002 1.00910889e+003
      1.34315625e+003 -1.00295685e+003 -4.69606384e+002 1.85002098e+001
      6.71711426e+001 4.60086060e+002 1.28195874e+003 3.95102844e+001
      7.09930237e+002 4.73834045e+002 2.55756445e+003 -1.31091125e+003
      -2.43682983e+003 -9.73821838e+002 -2.97487762e+002 5.05717102e+002
      -2.89741675e+003 -7.50595703e+002 3.86431488e+002 3.47430664e+002
      5.84222046e+002 2.36220898e+003 1.79522937e+003 1.39881140e+003
      2.28607620e+002 -9.29675537e+002 2.50142798e+003 -1.26399368e+002
      -1.52429474e+002 -7.33984009e+002 3.75586548e+001 2.38852570e+002
      3.22117944e+003 -1.70305750e+003 3.72912354e+003 -4.95467224e+002
      -2.78552734e+002 -3.90480591e+002 1.00999184e+002 -1.15795803e+001
      1.55438766e+002 -1.28708954e+002 -1.59469795e+004</_>
    <_>
      2.33261406e+004 -1.11113809e+004 -1.86117090e+003 1.33187695e+003
      4.69138153e+002 -1.92131018e+003 4.79966339e+002 -4.21476709e+003
      -1.83449731e+003 -8.89709595e+002 8.03610046e+002 4.14373145e+003
      -1.64974792e+002 2.03077356e+003 -1.46003076e+003 3.70476514e+003
      3.48691821e+003 -5.87003418e+003 4.82978564e+003 -9.12648560e+002
      2.40435974e+002 3.32988770e+002 7.82282227e+002 2.10239331e+003
      9.47058716e+002 2.76002515e+003 -2.88153564e+003 2.78526880e+003
      1.70158997e+003 2.97159546e+002 5.60824738e+001 -5.93160339e+002
      -9.53829102e+002 3.23532104e+001 6.19677979e+002 9.94881104e+002
      8.07274658e+002 -2.01771286e+002 -6.63505127e+002 1.06135376e+002
      -1.72317642e+002 5.00713562e+002 1.14735168e+003 3.24804932e+002
      2.42048828e+002 -1.41347694e+000 1.08553992e+003 -7.95919189e+002
      -1.99338623e+003 -1.44528564e+003 6.56072205e+002 6.29311279e+002
      -3.38832733e+002 -4.04592438e+002 -2.79437378e+002 6.92134583e+002
      1.25921204e+003 2.35249344e+002 1.00396100e+003 1.89496765e+002
      -2.86228394e+002 1.20039749e+002 -6.43997742e+002 6.04360413e+002
      -6.37091751e+001 3.18170872e+001 6.63814209e+002 5.75497389e+000
      -4.79667627e+003 1.84241931e+003 -3.96446411e+003 2.87538727e+002
      5.28925858e+001 3.20674530e+002 2.76757107e+001 -4.22775536e+001
      -1.15094414e+002 5.93117485e+001 -1.56625000e+004</_>
    <_>
      2.13424824e+004 -1.06746943e+004 2.62979297e+003 -7.44868835e+002
      4.07516418e+002 2.86972607e+003 -7.81171082e+002 5.52433496e+003
      1.22300369e+002 -5.67004211e+002 -1.94005774e+003 6.40727844e+002
      7.59895508e+002 -1.98991748e+003 7.41364746e+002 6.79312973e+001
      -6.05679736e+003 -2.12755688e+003 -7.39080566e+002 8.44367615e+002
      1.97859045e+003 1.24705652e+003 1.04361707e+003 -2.97524689e+002
      4.93939056e+002 3.25443970e+002 1.73132227e+003 3.63243213e+003
      -1.42952185e+003 3.46092749e+003 2.21572168e+003 -2.78240820e+003
      2.84821924e+003 8.19849396e+001 -1.93650684e+003 3.85383203e+003
      4.05526685e+003 -4.06982349e+003 -1.72498743e+003 -5.92667725e+002
      -1.95626050e+003 3.59808301e+003 2.24342969e+003 -6.83323914e+002
      4.44413525e+003 -2.70904517e+003 5.31468628e+002 -9.78331726e+002
      -3.47182465e+002 -1.24881226e+003 -3.77516846e+002 2.42529678e+001
      3.74979156e+002 1.04156384e+003 1.90006790e+002 -2.74120453e+002
      -1.09940845e+003 -2.49360107e+003 -2.80922095e+003
      -2.65254395e+002 4.92059059e+001 2.17681763e+002 -6.07752258e+002
      -4.48792114e+002 5.90292664e+002 -5.00848618e+001 1.50748547e+003
      -1.55433868e+002 4.64172302e+002 -1.74646210e+002 6.61647400e+002
      -3.68318909e+002 5.26492004e+001 -1.00606796e+002 -8.82999725e+001
      3.55640068e+001 6.21101494e+001 -1.51236210e+001 -1.03308096e+004</_>
    <_>
      1.76104785e+004 -7.67398535e+003 4.65077539e+003 -2.54957129e+003
      4.55112915e+002 4.52343262e+003 -1.90997925e+003 1.14365938e+004
      6.51310669e+002 8.15872864e+002 -1.65736890e+003 1.46168900e+002
      3.42435474e+003 1.00108688e+002 7.81265332e+003 -7.15466846e+003
      -2.95869507e+002 8.09852722e+002 -9.45538818e+002 -8.88859497e+002
      1.71059494e+002 1.41158826e+003 -6.55278381e+002 6.64093628e+002
      1.56008350e+003 2.55055591e+003 -4.60636670e+003 1.85645837e+003
      2.05627979e+003 -7.35795959e+002 4.08188812e+002 4.17522247e+002
      -8.79166382e+002 -1.12743591e+003 -1.11020996e+003 4.94118652e+002
      -5.32784424e+001 -1.73876782e+003 1.35504379e+002 2.74070435e+002
      8.68574341e+002 -4.43701563e+003 1.39240051e+003 1.77757690e+003
      3.10920563e+002 -7.61433960e+002 -6.30815674e+002 1.56623108e+003
      -2.51226944e+002 -4.38831604e+002 -3.67087097e+002 2.28394409e+003
      5.09458838e+003 1.07421411e+003 1.32776147e+003 -3.78318207e+002
      4.62876160e+002 1.60608569e+003 2.67673267e+003 -8.61974670e+002
      -1.71891443e+003 -4.31919220e+002 1.01363245e+003 -2.06738525e+002
      -1.58488403e+002 -4.32719879e+002 -1.63656784e+002 2.45980286e+002
      -5.66153030e+001 3.43605286e+002 5.16759583e+002 -4.10717666e-001
      -1.76425873e+002 -5.70571976e+001 5.63131599e+001 9.04978867e+001
      3.14170288e+002 -6.17975197e+001 -6.58876367e+003</_>
    <_>
      1.99185410e+004 -8.96368848e+003 3.58324854e+003 -3.81417578e+003
      1.51035132e+003 4.40435254e+003 -1.96532068e+003 1.16771797e+004
      1.22142981e+003 6.49576111e+002 -1.60625208e+003 1.50273743e+003
      3.76345093e+003 1.53507227e+003 7.51458545e+003 -5.67321680e+003
      -3.59939758e+002 -1.01034784e+003 1.40369141e+003 -1.49087540e+002
      -1.06305396e+003 1.62153564e+003 -4.02634918e+002 8.46021042e+001
      2.13778027e+003 1.19950049e+003 -5.83612793e+003 8.32736893e+001
      9.54071472e+002 -1.58254700e+002 -1.94482495e+003 1.16236618e+002
      -1.83108435e+003 1.61451660e+003 1.28854871e+003 -1.81856067e+003
      -1.70282520e+003 3.84561694e+003 6.62514160e+002 -1.40660873e+002
      6.65706909e+002 3.89343945e+003 -1.54699670e+003 -4.10227539e+002
      -1.37517676e+003 4.13479431e+002 -2.46530045e+002 -1.60384412e+003
      1.44657593e+003 1.33710339e+003 2.87559357e+002 -2.24125830e+003
      -4.03382300e+003 -6.05746155e+002 -1.58166760e+003 1.87330948e+002
      -5.95764038e+002 -1.21777112e+003 -2.26897729e+003 1.17286096e+003
      1.72933057e+003 2.68905151e+002 -4.97487885e+002 3.53260132e+002
      2.82913269e+002 3.34729614e+002 7.01451050e+002 -4.77683868e+002
      7.88469009e+001 -6.40997070e+002 -2.03002182e+002 -5.42466812e+001
      2.75254395e+002 7.76433487e+001 -7.24102631e+001 -2.73687954e+001
      -7.19396515e+001 1.10570122e+002 -1.22357373e+004</_>
    <_>
      2.19568418e+004 -1.10996445e+004 1.99195520e+003 -1.84910620e+003
      8.58701599e+002 3.67666064e+003 -7.29701782e+002 6.13757764e+003
      1.26834448e+003 2.46036804e+002 2.58963623e+002 -2.38331201e+003
      5.36010376e+002 -2.03345715e+003 -4.05040649e+003 3.93129443e+003
      -5.03380811e+003 -6.62739944e+001 -6.00306580e+002 1.61013013e+003
      4.95494110e+002 1.84953638e+003 -3.12998199e+002 -5.51236755e+002
      -1.01356384e+003 5.73499268e+002 -1.29249268e+003 -1.69701355e+003
      -5.42443542e+002 -9.88058777e+002 2.52363135e+003 1.50340210e+003
      -1.10919641e+003 -1.03428552e+003 -7.20055176e+002
      -8.53838684e+002 -7.54849243e+002 -9.95276184e+002
      -3.47003906e+002 1.97097031e+002 6.63928894e+002 -6.35946289e+003
      1.79739038e+003 1.67604889e+002 -2.34941788e+002 1.49031812e+003
      9.14381592e+002 -2.14148315e+003 -1.16998694e+003 -1.03903906e+003
      -5.21208069e+002 -5.05566528e+002 -1.36195032e+003
      -9.03065308e+002 -5.70981628e+002 4.96542786e+002 -6.35441650e+002
      -1.27838660e+003 -1.87638477e+003 2.62704987e+002 1.39912122e+003
      6.78037659e+002 -1.49747791e+003 -7.84609985e+002 -7.96404480e+002
      1.08106360e+003 -5.11072754e+003 -1.70768845e+002 -1.03987537e+003
      -1.56880652e+003 -2.84476700e+001 -4.73901291e+001
      -1.72985031e+002 7.11559753e+001 -2.94686165e+001 2.45529404e+001
      2.59666901e+002 5.70407715e+001 -7.73770850e+003</_>
    <_>
      2.14365156e+004 -1.09201807e+004 2.49275879e+003 -2.11960400e+003
      8.09958191e+002 4.63812793e+003 -1.28390759e+003 7.68756494e+003
      1.82760596e+003 4.54681702e+002 2.98435120e+002 -2.86889209e+003
      5.00218781e+002 -2.89766187e+003 -3.65298730e+003 3.32215088e+003
      -4.54248877e+003 1.24898303e+003 -9.29709900e+002 2.04449402e+003
      8.43841095e+001 1.68898926e+003 -2.09294571e+002 -6.56641357e+002
      -1.71781323e+003 -7.90434937e+002 1.64592749e+003 -2.00742883e+003
      -9.50475525e+002 -1.05039172e+003 1.87513107e+002 1.21945483e+003
      -1.54742749e+003 5.05135986e+002 4.91733002e+002 -4.14646179e+002
      -5.43232117e+002 3.00340820e+002 3.42162964e+002 -1.87591965e+002
      -5.15860107e+002 -2.75851758e+003 -3.83072754e+002
      -2.37005890e+002 -2.21240332e+003 1.82261230e+003 1.78494788e+003
      9.42536163e+001 -1.86253809e+003 -9.87346863e+002 2.95243988e+002
      -3.92913788e+002 -1.89963379e+003 -7.02261475e+002 1.51692285e+003
      2.90581482e+002 7.20261230e+002 4.60594269e+002 1.98088623e+003
      -1.82738318e+003 -5.88348938e+002 -3.67769409e+002
      -2.04690198e+003 1.16522449e+003 3.93840668e+002 4.19222290e+002
      5.61047266e+003 -1.09985031e+002 1.82173901e+003 1.38782837e+003
      -7.00291443e+002 6.38068298e+002 7.80191223e+002 1.51977203e+002
      1.02810707e+002 6.42270279e+001 -4.61949677e+002 1.84684845e+002
      -1.03538037e+004</_>
    <_>
      2.16630488e+004 -1.07814209e+004 1.21615967e+003 -2.09932593e+003
      9.87745544e+002 3.45079688e+003 -8.43581848e+002 5.15486523e+003
      1.80387463e+003 -1.68126999e+002 6.84072693e+002 -1.60068286e+003
      -5.28982300e+002 -4.75387695e+002 -5.53191064e+003 6.73059473e+003
      -4.17935498e+003 -1.83336823e+002 1.46902820e+003 1.30614868e+003
      8.13392761e+002 1.46041370e+003 1.21197876e+003 -7.90221130e+002
      7.31967468e+002 -7.70734375e+002 -1.27669055e+003 -4.54596631e+003
      -2.28397388e+003 -5.76945068e+002 1.48299280e+003 -2.02047180e+002
      -1.72096130e+002 1.51439728e+002 1.83212566e+000 -1.18738562e+003
      -1.33558459e+003 1.70819666e+003 8.56421753e+002 -8.46626343e+002
      4.38573761e+002 2.48091626e+003 1.03906113e+002 -7.95545532e+002
      -6.89415588e+001 4.47307770e+002 -2.52491724e+003 1.43306738e+003
      1.95989050e+003 1.33619983e+003 1.44716956e+003 8.46001099e+002
      3.48837378e+003 3.05563263e+002 -3.54851587e+003 -1.65081268e+002
      1.58649500e+003 -3.91483398e+002 5.15793076e+001 2.08822998e+003
      -4.31659058e+002 -6.00118774e+002 4.43155762e+003 -2.03038589e+002
      5.92131714e+002 -1.88870691e+003 6.91359802e+002 1.28533615e+002
      -9.46324524e+002 4.62064819e+002 3.87746857e+002 -3.96536102e+002
      -6.81340942e+002 -2.92035095e+002 -1.94071712e+001
      -2.02542572e+001 1.01408951e+002 -2.19097397e+002 -8.60902930e+003</_>
    <_>
      2.01505703e+004 -9.79989355e+003 2.86585425e+003 -2.22840601e+003
      7.30593262e+002 5.98549902e+003 -1.94555286e+003 9.11409375e+003
      1.48624109e+003 2.13142059e+002 1.90598923e+002 -2.89032886e+003
      -1.63208069e+003 -1.47068494e+003 -3.34999902e+003 9.31177734e+002
      -1.73249313e+002 3.30007153e+003 -2.54496362e+003 1.53281934e+003
      -3.84234772e+002 -1.08286609e+003 -1.14433670e+002
      -6.29905457e+002 -5.85639465e+002 -1.88374255e+003 3.51267773e+003
      1.37391809e+003 1.25844995e+003 -2.14701889e+002 -3.26639648e+003
      -1.36104114e+003 -9.40757935e+002 9.96251404e+002 -9.16814499e+001
      8.76773438e+002 3.18915344e+002 1.69944507e+003 -5.07596436e+002
      -1.86003937e+002 -1.66817163e+003 6.96253125e+003 -2.47376318e+003
      4.40154480e+002 -3.09123322e+002 -2.49945099e+002 2.02077429e+003
      7.01036316e+002 -1.36994849e+003 5.47788452e+002 -1.57600021e+002
      7.19090149e+002 -6.11295166e+001 4.47806946e+002 2.92219580e+003
      -3.13078400e+002 -2.58012970e+002 3.48241919e+003 2.39313281e+003
      -6.68186523e+002 -5.59216614e+002 1.28829758e+002 -3.50162323e+002
      -6.29402008e+001 -7.80891357e+002 5.64328064e+002 -3.52589087e+003
      7.11504211e+001 -1.10692798e+003 -1.08561790e+002 1.53391247e+001
      1.87947159e+002 -1.99530930e+002 1.81044342e+002 -1.78566418e+001
      -2.56011066e+001 2.18921906e+002 -2.74389229e+001 -9.15350684e+003</_>
    <_>
      1.96417715e+004 -1.04931416e+004 1.25754272e+003 -1.40741913e+002
      1.86252701e+002 2.40657764e+003 -5.12469666e+002 5.40324170e+003
      -7.12573608e+002 7.55034546e+002 -6.04427368e+002 2.13271133e+002
      -8.16691956e+002 -7.81415222e+002 -7.63381470e+002
      -1.79986267e+003 4.78119238e+003 -1.30082764e+003 -1.64004248e+003
      -1.23378589e+003 -5.87663841e+001 -3.14200903e+003
      -1.18346741e+003 -3.33543671e+002 -3.80292627e+003
      -2.22824326e+002 8.41112305e+003 8.46566797e+003 3.35031958e+003
      5.56849854e+002 -2.27007251e+003 3.96261322e+002 1.32514612e+003
      -2.67477631e+002 1.46097794e+002 7.05752659e+000 -2.55219147e+002
      9.27354980e+002 5.30313034e+001 8.69848877e+002 7.03625000e+002
      -3.16606421e+003 -1.60211377e+003 -4.10747498e+002
      -1.70068872e+003 6.98092957e+002 -1.58036133e+003 6.99639954e+002
      -1.01580835e+003 -1.38820541e+002 1.15242981e+003 -3.11140015e+002
      -3.78867371e+002 -7.85080383e+002 -2.79073145e+003 1.45833789e+003
      1.77920105e+003 -1.92119263e+003 -4.75808136e+002 1.40956726e+003
      9.41529114e+002 -5.05254028e+002 1.88730444e+003 -8.44989990e+002
      3.29167450e+002 -8.68202087e+002 1.85993927e+002 3.54306755e+001
      5.64851929e+002 -2.36179230e+002 1.25828194e+002 -7.95329208e+001
      3.39020844e+001 -5.14205666e+001 7.52266464e+001 3.65833588e+001
      1.39084946e+002 -1.90415440e+001 -1.10969492e+004</_>
    <_>
      -9.49069434e+003 -2.81452637e+003 1.16323701e+004 -2.96413818e+003
      9.06693481e+002 -1.63115833e+003 9.30401758e+003 -8.03804626e+002
      -3.25844238e+003 5.54477722e+002 -2.52753687e+003 -2.42136060e+003
      2.84530396e+003 -1.00957532e+003 -2.11402539e+003 1.92123795e+002
      7.86048157e+002 -5.56388611e+002 -3.44762756e+002 -1.76578857e+003
      4.32032715e+002 8.97538147e+002 -2.39466904e+002 -1.70846423e+003
      2.03407288e+003 -1.33274841e+003 -5.56017395e+002 -1.37444165e+003
      -1.72787380e+001 -1.66122961e+003 -1.78233789e+003
      -2.18113647e+002 1.69194324e+003 1.90175977e+003 -1.56120020e+003
      6.01824219e+002 -6.44348999e+002 1.43453079e+002 7.94497925e+002
      8.41392212e+002 2.31113330e+003 -8.55695679e+002 -3.15840698e+003
      1.18572742e+003 2.03121558e+003 -1.52861768e+003 -8.48877014e+002
      -1.34488806e+003 -1.32965027e+003 -1.15903271e+003 2.66032440e+002
      6.49528687e+002 -5.26929199e+002 2.84079189e+001 -5.97208929e+000
      2.15633499e+002 1.98373367e+002 -1.85225754e+002 2.53674042e+002
      3.64945648e+002 3.76665985e+002 6.90241760e+002 6.48740479e+002
      5.84675293e+001 7.86845245e+001 1.59364172e+003 -3.75694092e+002
      -8.98894424e+001 -5.18499329e+002 2.81558740e+003 1.27776428e+003
      -3.83646509e+003 3.75539819e+003 -3.33887726e+002 -3.09429913e+001
      1.72556953e+001 2.27546482e+001 2.43796478e+002 1.48255310e+003</_>
    <_>
      -8.34686914e+003 -3.39138794e+003 1.11345146e+004 -2.91683350e+003
      9.91194336e+002 -2.39769897e+003 1.16213447e+004 -1.20298193e+003
      -6.38619385e+002 3.14608826e+002 -3.01063452e+003 -1.83113367e+003
      2.14474390e+003 2.49911224e+002 -1.65673828e+003 1.73107788e+002
      9.51902893e+002 -4.43606964e+002 -4.56336609e+002 -1.78055969e+003
      1.10583643e+003 6.27576965e+002 4.03533859e+001 -3.76040771e+002
      1.51774463e+003 -3.64926941e+002 -8.15118469e+002 -8.21634094e+002
      -8.86860596e+002 -2.74992035e+002 -2.43698047e+003
      -2.65216492e+002 2.34848142e+000 1.87116772e+003 -1.28480298e+003
      3.65677147e+001 -5.20742798e+002 5.00634003e+001 2.11184912e+003
      -4.13963318e+002 1.22101963e+000 -3.69216736e+002 -1.07481787e+003
      1.73856995e+002 6.31946838e+002 -7.18328857e+002 -1.64834976e+002
      -7.72324341e+002 -4.51496582e+002 -9.41117554e+002 2.60434875e+002
      -5.83989487e+001 -6.87569702e+002 8.61928528e+002 -2.49634964e+002
      6.70967163e+002 6.34597778e+002 -5.16871216e+002 3.74758942e+002
      -1.81016443e+003 -8.45730835e+002 -3.78741516e+002
      -7.64327209e+002 -3.04426807e+003 1.94982483e+003 -2.05236646e+003
      -1.20928850e+001 6.82852051e+002 3.62805695e+002 -9.03383301e+002
      -2.63089905e+002 3.19512848e+002 -2.80092529e+003 4.39430566e+003
      -8.52883728e+002 -4.52844910e+002 -1.65683670e+002 6.30346069e+002
      1.39541956e+003</_>
    <_>
      -7.49677979e+003 -2.15240649e+003 9.31099805e+003 -2.56416724e+003
      1.25583081e+003 -3.59084399e+003 1.18041904e+004 -9.48586243e+002
      -9.23333862e+002 -1.81023376e+002 -2.42105151e+003
      -4.43433740e+003 2.23835425e+003 5.36655334e+002 -7.65125183e+002
      -1.19675635e+003 1.55654553e+003 3.07325409e+002 9.82914978e+002
      -7.00098267e+001 -5.20706367e+001 8.82574890e+002 -7.18316711e+002
      1.54659998e+003 -1.21195740e+003 7.91941162e+002 8.69483765e+002
      2.04770251e+003 7.41653381e+002 2.45169653e+003 4.73920801e+003
      3.17639221e+002 -2.61802002e+003 -1.92195496e+003 1.34942603e+003
      1.20401099e+003 -1.72022491e+002 1.74518945e+003 -1.43435583e+003
      -1.42464636e+003 -2.52601172e+003 6.31393433e+002 4.20815820e+003
      -1.62093311e+003 -1.51121094e+003 1.97500623e+003 1.50305713e+003
      3.66598486e+003 7.72575562e+002 3.96495459e+003 -9.33854065e+002
      1.74594620e+002 1.14219397e+003 -1.23715002e+003 5.02578888e+002
      1.02678894e+002 -1.00776630e+003 6.29690979e+002 -5.20465027e+002
      7.89863831e+002 2.88537109e+003 -8.25941696e+001 -4.13745728e+001
      1.12160889e+003 -6.51002380e+002 1.01156409e+003 5.61870270e+001
      -2.46398270e+002 -9.38742142e+001 1.42753772e+003 8.42998169e+002
      -8.51965942e+002 5.21920166e+002 1.94134692e+003 -2.72868225e+002
      -5.54322968e+001 -1.37317245e+002 2.06174789e+002 3.62007690e+003</_>
    <_>
      -1.44256865e+004 -3.24362061e+003 1.06967041e+004 -3.76269067e+003
      3.48511505e+002 -1.98237869e+002 -5.16749170e+003 -8.30941162e+002
      1.55176050e+003 1.12484009e+003 -2.60351944e+001 4.20200409e+002
      3.23901825e+002 1.44002893e+003 9.06848083e+002 -3.79610352e+002
      1.21640602e+002 -7.96819092e+002 -4.45939423e+002 -5.27654236e+002
      -1.32616248e+003 -7.48110535e+002 -6.95005066e+002 6.13327454e+002
      -1.39463989e+003 2.37077515e+003 1.95391797e+003 -3.48680518e+003
      4.28472705e+003 -6.01264282e+002 3.79226831e+003 2.52221021e+003
      1.89370313e+003 -3.01322729e+003 3.08544360e+003 2.46533179e+003
      -4.06825836e+002 2.96703638e+003 -4.26971045e+003 4.16491455e+002
      -1.49143347e+003 1.03668726e+003 -2.18395972e+003 9.42022705e+002
      6.90606201e+002 6.34659790e+002 7.75412048e+002 -3.35312012e+003
      -4.82062378e+002 2.86253876e+002 -1.99821509e+003 1.84158594e+003
      5.95978821e+002 6.89175949e+001 -3.03948633e+003 -1.32917419e+003
      5.70325500e+002 1.47049219e+003 -9.64800537e+002 -1.64967310e+003
      -1.03421240e+003 1.73105896e+002 -1.22410217e+003 -2.29918335e+003
      -1.92701782e+003 -1.88086536e+003 7.27408875e+002 8.33233093e+002
      5.88255005e+002 -4.22404938e+002 -6.71661743e+002 -1.53580933e+003
      1.28951759e+001 -1.45271378e+002 -3.64133072e+001 -5.36392784e+001
      -7.45515137e+001 -1.59303650e+002 3.09033398e+003</_>
    <_>
      -8.36218359e+003 -3.99152393e+003 9.73342383e+003 -2.96011646e+003
      5.06936523e+002 -3.42865210e+003 1.28625039e+004 -1.20347083e+003
      -5.76873352e+002 1.66697662e+002 -3.22711206e+003 -3.49000220e+003
      2.45845166e+003 -2.79940704e+002 -1.26841833e+003 -1.12367004e+003
      1.31401318e+003 -6.31435318e+001 1.70929276e+002 -4.08346283e+002
      5.77681519e+002 -4.09698181e+001 -8.72324829e+001 1.46161670e+003
      -2.05947952e+002 1.45169250e+002 -3.89728729e+002 2.54695572e+002
      -1.24235278e+003 8.64622620e+002 6.55371826e+002 -3.28550568e+002
      -1.08834607e+003 4.46630798e+002 -5.81695007e+002 3.94905396e+002
      -4.23011078e+002 1.11039685e+003 9.72445923e+002 -1.49367273e+003
      -1.07188440e+003 2.13685471e+002 1.15389746e+003 -9.02672852e+002
      -9.91776245e+002 -1.32816284e+002 2.45673111e+002 1.14850146e+003
      -2.16269547e+002 4.23458618e+002 -1.93629684e+002 -7.43688843e+002
      -6.99759949e+002 1.39109558e+002 2.12994934e+002 3.11464996e+002
      -2.16248093e+002 6.16587791e+001 5.47491028e+002 -1.85667456e+003
      -9.67260803e+002 5.41225815e+000 -3.27006897e+002 -2.95460327e+003
      2.48262964e+003 -1.79039331e+003 -1.14878822e+002 -4.68114960e+002
      -5.68169128e+002 -2.08372656e+003 -9.86971069e+002 1.12879016e+003
      9.73913147e+002 -4.64220068e+003 7.89725830e+002 4.27826385e+002
      1.46110336e+002 -5.21637573e+002 2.76344775e+003</_>
    <_>
      -1.46617334e+004 -2.92132324e+003 9.65936523e+003 -3.12639648e+003
      5.77499390e+002 7.54626648e+002 -9.48268555e+003 -4.22550342e+003
      6.65127979e+003 2.52580908e+003 -1.78958496e+003 -3.81530176e+003
      3.38628687e+003 2.64393408e+003 -1.27503540e+003 -1.59969409e+003
      -3.50679474e+002 -4.77797412e+003 -1.35549878e+003
      -5.70729675e+002 5.56798889e+002 -2.31000513e+003 5.95939445e+001
      1.44077832e+003 -1.88375354e+003 7.98893127e+002 5.91940857e+002
      -1.52337488e+003 3.84679031e+001 -1.49681775e+003 -1.50957251e+003
      -1.42656128e+003 8.12434753e+002 -9.91073425e+002 -8.45655136e+001
      -3.49596588e+002 9.93044250e+002 -2.12941675e+003 -1.13006836e+003
      6.67767883e+002 1.36224988e+003 3.81598846e+002 9.14588562e+002
      -3.21992249e+002 -1.13578418e+003 -6.19615662e+002 1.11396948e+003
      -1.11392593e+002 -6.70281128e+002 1.98356897e+003 -1.46640295e+003
      8.92915527e+002 -6.24069519e+002 5.72198181e+002 -3.22854297e+003
      -7.55071289e+002 2.53335068e+002 6.26483337e+002 6.20888855e+002
      -1.05324438e+003 -8.99761414e+002 4.55686432e+002 6.06786377e+002
      2.31126611e+003 5.07593018e+003 3.04047388e+003 -8.40823975e+002
      -1.74089392e+003 2.19363785e+002 2.84535797e+002 6.15585976e+001
      4.99309723e+002 -5.40418335e+002 1.80874100e+002 -1.08647179e+002
      1.29308329e+001 2.39793961e+002 2.08674240e+002 4.69968652e+003</_>
    <_>
      -1.33191787e+004 -1.74011316e+003 7.50347021e+003 -2.79819409e+003
      7.27449875e+001 -8.56484833e+001 -1.09913330e+004 -5.78163477e+003
      6.01718457e+003 3.43690649e+003 -1.06082373e+003 -6.68666748e+003
      4.20045850e+003 2.39952466e+003 -1.16670679e+003 -1.52455249e+003
      -1.26099097e+003 -5.67251611e+003 -1.45992358e+003
      -2.23288651e+002 1.36190710e+003 -3.35472046e+003 7.17092957e+002
      2.53234644e+003 -2.41503589e+003 5.21809631e+002 -6.64374207e+002
      2.28388882e+001 -3.07477466e+003 -1.95047998e+003 -2.93825610e+003
      -2.04842090e+003 -1.45163196e+003 1.56342883e+003 -1.04279443e+003
      -1.42424719e+003 8.45375854e+002 -1.63271594e+003 1.40831616e+003
      -5.94481628e+002 2.02335718e+003 7.00528748e+002 1.64150525e+003
      2.50779572e+002 -1.20632068e+003 -1.43083459e+003 2.98172272e+002
      1.78317065e+003 -2.87342133e+002 3.42834229e+002 6.26080261e+002
      -8.72386658e+002 4.96314758e+002 -1.18733850e+003 1.16740759e+003
      -1.37094727e+002 8.18567322e+002 -5.59626526e+002 -5.68870544e+002
      5.17866333e+002 1.22789612e+003 -6.30020081e+002 -1.16931580e+003
      -1.54876697e+003 -4.55814600e+003 -1.93831226e+003 5.04480408e+002
      1.47887463e+003 -3.38844330e+002 1.12172455e+002 2.89282257e+002
      -4.36310028e+002 2.78478119e+002 -1.88307281e+002 1.10503075e+002
      -2.90556831e+001 -1.86088882e+002 -1.68139236e+002 4.81930908e+003</_>
    <_>
      -1.11877314e+004 -2.42895972e+003 1.01098506e+004 -4.08556812e+003
      -2.54585815e+003 -2.15380933e+003 -2.16007520e+003
      -3.61231567e+003 1.02954033e+004 1.33549500e+003 2.25046295e+002
      2.83094482e+003 -6.51296448e+002 -2.10535889e+003 1.34396094e+003
      2.91659814e+003 1.96581592e+003 5.29166455e+003 3.76610864e+003
      -5.25885803e+002 -4.50754822e+002 4.42735840e+003 5.32345093e+002
      -3.23350269e+003 3.40308740e+003 -2.13806152e+003 8.28471451e+001
      2.46222827e+003 6.25874451e+002 -1.50772839e+003 -9.32493103e+002
      -5.25516663e+002 4.91560760e+002 -6.35400024e+002 -5.16843689e+002
      -1.23580432e+003 1.25209912e+003 -9.86409912e+002 -1.78294202e+003
      -1.78575424e+002 -5.93981857e+001 -3.41904785e+002 1.31401779e+002
      7.27568726e+002 1.93428055e+002 3.02078571e+001 5.31468567e+002
      -2.96428833e+002 1.73093323e+002 8.92833313e+002 -5.88964050e+002
      -3.89665344e+002 5.52119675e+001 -5.79663879e+002 -1.48275720e+003
      -5.96420044e+002 7.65962036e+002 2.04280792e+002 -8.09368286e+002
      -1.17617073e+002 -4.87410675e+002 -5.71293869e+001
      -2.27760727e+002 -8.03387207e+002 -4.47976074e+002
      -1.14409546e+003 -2.39710541e+002 3.60291290e+001 -8.67490234e+002
      8.09603333e+002 1.80233057e+003 4.09927734e+003 2.99619531e+003
      9.73582153e+002 2.25466629e+002 2.32926361e+002 -3.35531189e+002
      -4.18475838e+001 3.58704102e+003</_>
    <_>
      -1.28863379e+004 2.15478912e+002 9.68056738e+003 -3.50666455e+003
      4.02125000e+002 -1.40603912e+002 -8.93060840e+003 -4.26347217e+003
      5.02188965e+003 2.32320239e+003 -3.51489197e+002 -1.94242896e+003
      1.81331873e+003 3.52188873e+002 -2.97947998e+002 -3.35666351e+002
      -2.68987488e+002 -1.91218738e+003 -1.13071724e+002
      -4.71869707e+000 -7.57168152e+002 -1.74711438e+003
      -1.83258337e+003 1.80429895e+003 -1.15634875e+003 1.98995178e+003
      1.48113068e+002 -7.53771790e+002 1.27986304e+003 1.26820923e+003
      2.91961206e+003 2.02600256e+003 -3.04726898e+002 -7.66573486e+002
      1.30290173e+003 1.69880322e+003 -1.89593835e+003 3.29165381e+003
      -6.18396606e+002 2.28043991e+002 -1.62613843e+003 -5.29058914e+001
      -1.11909045e+003 -8.37075073e+002 3.13760693e+003 2.24911060e+003
      -2.93574951e+003 -5.61982765e+001 9.74153198e+002 -3.41554883e+003
      3.19554224e+003 -9.03200439e+002 -8.06805115e+002 1.40860205e+003
      5.02111914e+003 1.92076892e+003 -1.48450989e+003 -1.70263025e+003
      7.60824402e+002 1.35421606e+003 -5.76846802e+002 4.37397491e+002
      1.43508899e+003 -2.00876389e+002 1.58938965e+003 5.65785370e+001
      -3.54424316e+002 -3.13742767e+002 -5.45732910e+002 5.71286072e+002
      9.73062439e+002 1.31740295e+003 4.47669556e+002 4.65568268e+002
      1.81654186e+001 1.23000252e+002 5.37187386e+001 3.82943382e+001
      5.28273193e+003</_>
    <_>
      -9.81605762e+003 -4.38359082e+003 8.76986133e+003 -3.88403687e+003
      -2.11411377e+003 -2.93004004e+003 7.44485693e+003 -1.75230786e+003
